-9.02882e-05	-5.89457e-05	3.06656e-05	3.00485e-06	4.10431e-05	-4.03915e-06	3.34323e-05	-3.90534e-05	8.68153e-05	4.93012e-05	1.65198e-05	-3.13272e-05	-3.19294e-05	2.94207e-07	2.96534e-05	1.25768e-05	1.23093e-05	-7.47045e-07	-4.07444e-05	5.86068e-05	2.2129e-05	-4.55849e-05	5.17408e-05	1.24724e-05	1.96749e-05	9.8764e-06	5.14068e-05	-1.07294e-05	-8.23102e-05	-7.95452e-05	-7.52763e-05	-6.37096e-06	3.02928e-05	-5.2191e-06	8.448e-06	1.95644e-05	1.89652e-05	-1.77953e-05	8.07767e-05	-2.18021e-05	-2.05761e-05	-5.78248e-05	-2.31848e-05	1.30639e-05	-4.66315e-05	-8.0629e-05	-5.21751e-05	2.78258e-05	2.93149e-06	-8.586e-06	2.69195e-05	6.93995e-06	4.33314e-05	2.8649e-06	3.78776e-05	1.47822e-05	-7.34413e-05	-5.37469e-06	-5.20899e-05	3.96675e-05	6.20799e-05	-2.43231e-05	2.24467e-05	5.85014e-06	-8.17955e-06	5.65532e-05	1.61907e-05	2.16954e-05	8.23679e-06	2.36266e-05	9.73442e-06	-9.59471e-05	3.97949e-05	-3.47458e-05	6.57826e-07	4.99611e-05	-8.21636e-05	-0.00013461	1.4734e-06	9.93886e-05	6.88444e-05	2.77572e-05	3.33132e-06	3.32197e-05	-1.00358e-05	-2.91835e-05	-4.75846e-05	1.7513e-06	-2.70244e-05	-7.11924e-07	-6.43502e-05	5.48647e-05	-6.03859e-06	4.68498e-05	-5.63573e-05	1.38611e-06	-4.90114e-05	3.20354e-05	4.32435e-05	4.17375e-05
-4.64669e-05	2.37835e-05	-3.59971e-05	-2.18371e-05	4.63861e-05	6.713e-05	1.73171e-05	-9.18265e-06	-1.62832e-05	-2.5926e-05	-1.05381e-05	2.0219e-05	1.09508e-05	1.73922e-05	-2.69894e-05	-4.52499e-06	6.12252e-05	-2.40319e-05	-9.14267e-05	-1.74296e-05	1.13786e-05	-6.84996e-05	3.4577e-05	4.08265e-05	7.87333e-05	-8.36851e-06	4.83613e-05	-1.84756e-05	-6.5223e-05	-2.3617e-06	-5.80316e-05	-1.321e-05	-3.76543e-05	1.74874e-05	-1.99359e-05	4.61019e-05	-3.03587e-05	-4.48349e-05	-3.26944e-05	4.64721e-05	3.55343e-06	-4.95615e-05	-1.18393e-05	-3.93952e-05	-4.97514e-05	-3.07891e-05	3.68821e-05	6.1277e-06	-1.49705e-05	3.47682e-05	3.52505e-05	3.65827e-05	2.13444e-05	-2.71022e-05	-3.81986e-05	6.94528e-05	-7.08824e-06	-1.05762e-05	-5.71209e-06	2.73406e-05	1.92067e-05	-4.12587e-05	3.56228e-06	7.09235e-05	3.95864e-05	-4.9531e-06	5.58434e-05	8.03981e-06	4.40507e-05	-6.5208e-05	8.36485e-06	2.61844e-06	4.31123e-06	-6.62192e-05	-5.39448e-05	7.40969e-05	-4.45619e-05	-6.12507e-05	4.65881e-07	5.28381e-06	3.85046e-05	2.6081e-05	-6.86375e-05	8.55931e-05	-5.5112e-05	-2.62959e-05	2.3179e-05	1.30302e-05	4.91746e-05	-4.93143e-06	-6.92063e-05	4.21109e-05	5.85215e-05	8.14978e-06	-3.36707e-05	-3.38505e-05	1.11075e-05	2.9576e-05	2.35736e-05	4.34269e-05
2.20954e-05	4.23265e-05	-4.09614e-06	-3.89681e-05	4.60179e-06	1.3161e-05	1.9188e-05	3.63591e-06	-4.39026e-05	-3.94234e-05	2.37075e-05	6.20972e-05	2.94475e-05	2.13311e-05	-3.69649e-06	-1.56258e-05	3.82844e-05	-1.41955e-05	-7.3519e-05	-3.3633e-06	2.01563e-05	-4.97139e-06	8.05854e-06	-3.36896e-05	2.06146e-06	-1.99707e-05	4.49353e-06	-0.000114093	-5.83723e-05	-2.60969e-05	-6.63003e-06	-2.8115e-05	-2.14148e-05	-1.50973e-05	-1.37159e-05	4.02049e-05	-7.92213e-05	-5.95538e-05	-4.04615e-05	2.93011e-05	-7.85826e-06	2.33925e-05	2.10261e-05	-5.31624e-05	-2.94987e-05	-2.85495e-06	3.13975e-05	9.56634e-06	3.00677e-05	4.64984e-05	-2.16474e-05	-1.23265e-05	-7.87002e-06	-8.12916e-06	-5.26057e-05	5.98107e-05	-1.79449e-05	-2.83818e-05	1.05677e-05	1.65381e-05	-9.66463e-07	-2.17505e-05	8.92578e-06	5.37434e-05	2.47598e-05	-2.85729e-05	4.97289e-05	-5.89118e-06	-2.99614e-05	4.12787e-05	1.98096e-05	-1.57954e-05	5.47776e-05	2.16291e-05	-7.36918e-05	6.40469e-06	3.09817e-06	-2.86681e-05	-2.50374e-05	-3.45523e-06	1.36628e-05	-5.37119e-05	-3.19769e-05	2.03642e-05	7.54504e-06	-1.60736e-05	2.23677e-05	-3.35949e-05	3.34011e-05	1.55801e-05	1.02725e-05	3.72328e-05	2.70429e-05	2.62165e-05	3.03114e-05	-1.30092e-05	4.75955e-05	-4.10699e-05	1.33488e-05	8.93357e-06
8.40485e-05	6.1002e-05	-5.08344e-05	-6.44464e-05	-9.36184e-06	2.96131e-05	2.85338e-05	1.70388e-05	-5.71037e-05	-8.32442e-05	3.85508e-05	0.000111387	6.18372e-05	1.9052e-05	-1.31137e-05	-7.54547e-05	3.89547e-05	-1.56216e-05	-0.000108478	-4.27938e-05	5.71695e-05	1.06829e-05	-3.04246e-05	-5.56477e-05	7.84945e-06	-5.98327e-05	4.8676e-06	-0.000196495	-6.7762e-05	-3.53625e-05	-8.36046e-06	-4.13611e-05	-3.06579e-05	-1.02478e-05	-4.37345e-05	7.22102e-05	-0.000165041	-0.000106412	-6.3816e-05	7.46553e-05	-2.93494e-05	9.98288e-06	1.77995e-05	-9.97702e-05	-6.22752e-05	1.35125e-05	8.17874e-05	1.01197e-05	5.12755e-05	2.64667e-05	-7.05433e-05	-2.215e-06	-3.42797e-05	-2.67494e-05	-9.22136e-05	0.000111791	-1.1332e-05	5.70787e-06	3.68247e-05	4.91037e-05	-5.34749e-05	-4.79515e-05	1.98848e-05	6.47616e-05	8.07291e-05	-8.48256e-05	3.75228e-05	-7.02068e-06	-6.43541e-05	6.48322e-05	3.33549e-05	3.10697e-05	9.26814e-05	4.43687e-05	-0.000111348	-4.24112e-06	-1.19413e-05	-3.92585e-05	-7.50413e-05	-2.7143e-05	-2.26779e-05	-0.000108894	-0.000101579	-3.98258e-06	1.60087e-06	1.18966e-05	7.27523e-05	-5.19641e-05	6.76456e-05	1.20499e-05	4.99555e-05	1.36206e-05	2.84773e-05	-3.25103e-05	8.4271e-05	-9.39642e-06	8.01425e-05	-8.43549e-05	4.77299e-06	-1.56086e-05
-8.34914e-05	-0.000226365	-5.21494e-05	7.16804e-05	0.000249171	2.7574e-05	0.00015069	-0.000107256	-0.000139216	0.000130423	5.38698e-05	-9.25418e-05	-0.000155887	-0.000178776	3.91466e-05	0.000214057	0.000164278	-4.15407e-05	-5.66596e-05	0.000198157	-6.40072e-05	-0.000297662	0.000162831	7.15377e-05	7.44243e-05	0.000156796	0.000410248	0.000139463	-6.49707e-05	-4.47443e-05	0.000197258	-0.000193922	-1.36951e-05	0.000196673	0.000283387	-0.000110389	8.38546e-05	-0.000202751	1.11007e-05	9.84927e-05	0.000105575	-0.000136243	-0.000294214	6.11102e-05	9.2535e-05	-0.000167605	-0.000349847	0.000159747	-0.00027675	4.55739e-05	0.000550886	9.48107e-05	0.00019998	3.0326e-05	7.89881e-05	-0.000187743	6.53211e-05	0.000191825	-5.94947e-05	0.000251111	0.000100667	7.15169e-05	-2.89805e-06	0.000322888	-6.94108e-05	0.000165381	-0.000318009	-4.68232e-05	-3.24025e-05	-1.55687e-05	0.000146673	-0.000295729	-3.04155e-05	-2.28274e-05	-0.000221688	0.000182726	-1.31826e-05	-0.000164645	-9.23618e-05	0.000140548	-3.78234e-05	3.33238e-05	-7.30329e-05	-0.000170933	2.85242e-05	-0.000225745	7.27459e-05	0.00020821	-9.02989e-05	-9.98448e-06	0.000100169	-1.09441e-05	-0.000156719	2.31494e-05	-0.000268067	1.84052e-05	2.09981e-05	0.000265676	0.000280203	-7.07363e-06
-2.0136e-05	-0.000341048	-4.92091e-05	0.000199671	-0.000161913	-0.000108106	-9.48427e-05	-0.000220941	-0.000200015	-0.000217439	-3.64195e-05	-5.12538e-05	-0.000274235	-0.000135831	0.000206596	0.000385616	0.00013943	-0.000101596	5.45588e-05	-2.06418e-05	-0.000136293	-0.000118622	0.000184989	0.000159009	1.8425e-05	0.000101053	0.000239338	0.00010329	-0.000147496	-3.25174e-05	9.12729e-05	-0.000137956	1.14208e-05	0.000200866	0.000505767	-0.000208655	-5.8443e-05	-0.000233815	9.22446e-05	-5.91267e-06	-5.14669e-05	-9.31345e-05	7.09303e-05	-2.93056e-05	0.000145105	1.33299e-05	-0.000153278	3.40939e-05	-0.000432029	0.000140844	0.000484977	-2.40918e-05	0.000112152	-0.000155484	-6.61187e-06	-0.000140862	0.000253298	-5.02815e-05	-0.000166845	-5.38195e-05	-0.000117931	3.70862e-05	-0.000217825	0.000182015	-0.00021714	4.34179e-05	-0.000279042	-0.000121238	9.26042e-05	-0.000100302	-7.04947e-05	-0.000136885	-8.84462e-05	9.57749e-05	-6.60967e-05	-3.91459e-05	2.83464e-05	-2.74624e-05	-0.000220986	0.000134862	3.8742e-05	4.98306e-05	1.32978e-06	-5.76244e-05	-2.09501e-05	7.5887e-05	1.59058e-05	4.56439e-05	-0.000359959	-0.000181134	8.04818e-05	6.04626e-05	-1.23114e-05	-8.52817e-05	-5.7307e-05	-7.40185e-05	-2.72912e-05	0.000291953	0.000244292	1.23854e-05
-7.84783e-05	0.000359973	-1.45755e-05	-8.60797e-05	-6.05028e-05	8.74346e-05	-0.000111192	-2.3592e-05	0.000212126	-5.99408e-05	-0.000163299	-0.000132086	-6.16475e-05	-0.000108716	3.98095e-05	5.37626e-06	5.04332e-05	1.178e-06	-7.32104e-05	-0.000225195	7.76833e-05	-5.97631e-06	7.48945e-05	0.000138436	4.26354e-06	-5.18355e-05	8.80726e-05	0.000229247	5.40635e-05	0.000240928	-0.000108396	0.000196776	-9.89552e-05	-2.59024e-06	-2.00187e-06	-0.000134571	0.000195758	9.63215e-07	-4.59719e-05	3.25709e-05	-6.54327e-05	-0.000321892	-9.53999e-05	5.11603e-05	0.000105016	-9.4309e-05	3.18116e-05	-0.000199686	-0.000198042	-9.20688e-05	1.09226e-05	-6.17996e-05	-0.000138001	-0.000206555	1.59559e-05	-6.23328e-05	-4.00361e-05	-0.000183334	1.38838e-06	-0.000197213	-3.75794e-05	4.38701e-05	-0.000269084	9.32927e-06	-7.20587e-05	-9.38233e-05	4.04924e-05	0.000251709	3.70023e-05	-0.000102664	-0.000124138	-8.9587e-05	7.50426e-05	2.41766e-05	5.34226e-05	-0.000123148	0.000137969	-0.000155306	-0.000111029	-6.30589e-05	5.29279e-05	0.000192587	0.000103651	0.000180154	-1.64899e-05	-8.51242e-05	0.000105682	0.000149134	6.75252e-05	-0.000112976	-9.73562e-06	-0.000261861	0.000259827	5.13553e-06	-6.52792e-05	-6.43283e-05	-2.45477e-06	5.54527e-05	-0.000112717	-5.98045e-06
-0.000219865	0.00035032	3.10829e-05	4.51371e-06	1.54415e-05	-3.35261e-05	4.43449e-05	0.000202046	0.000206447	0.000239184	-8.02703e-06	-0.000320753	2.48685e-05	6.69879e-05	4.94471e-05	0.000109587	4.06061e-05	0.00025381	2.10613e-06	0.000133183	-3.13391e-05	-0.000224194	-8.12699e-05	0.000179353	-4.45091e-05	9.40864e-05	2.03247e-05	0.000169201	-9.56622e-05	-4.96984e-05	-0.000356902	5.38912e-05	0.00019551	-8.75259e-05	-0.000173015	-8.94418e-05	0.000367927	0.000208759	-3.09042e-06	-0.000112242	-4.07919e-05	-0.000175925	-1.47465e-05	0.000188831	-0.00014347	-0.000342845	7.80554e-06	5.76057e-05	0.000177178	-0.000144342	-6.65488e-05	0.000133938	-4.36628e-05	3.61599e-05	9.60751e-05	-4.72497e-05	-0.000249478	-8.58362e-05	-9.2845e-05	0.000145417	0.000113655	5.63693e-07	-7.31402e-05	-2.42118e-05	0.000163118	3.76614e-05	1.4734e-05	0.000105412	-7.10484e-05	1.50377e-05	-0.000155038	-0.000193686	0.000153679	0.000102826	0.000195333	7.52011e-05	-0.000224118	-0.000304009	-2.29169e-06	-0.000105012	0.000154906	0.000311021	4.48719e-05	5.92802e-05	6.75377e-05	-0.000151106	2.11453e-05	3.12106e-05	-3.31213e-05	0.000156971	1.12879e-05	3.13952e-05	2.12573e-05	0.000232021	-0.000139365	-6.2352e-05	7.3241e-05	4.51772e-06	-0.000269927	8.54176e-05
0.000192987	0.000100357	5.0804e-05	-4.47369e-05	4.05172e-05	8.5047e-05	-1.38556e-05	3.51121e-05	-0.000127022	-0.00010355	0.00012142	0.000163216	4.99156e-05	7.12419e-05	-6.1176e-05	-1.08428e-05	0.000194325	2.19029e-05	-9.47063e-05	-2.85621e-05	3.31203e-05	-8.03192e-05	6.31534e-06	-3.42278e-05	-2.80115e-05	-2.97525e-05	-1.86372e-07	-0.000194956	-6.59714e-05	-1.59622e-05	-7.86127e-05	-8.18782e-05	-8.56e-06	3.49338e-05	-2.24907e-05	4.5909e-05	-0.000234626	-0.000109423	-0.000111884	2.93054e-05	-9.33785e-05	-3.09932e-05	6.9113e-05	-7.6885e-05	-3.95064e-05	-1.15613e-05	0.00010694	0.000108763	3.41573e-05	6.52072e-05	1.57916e-05	-0.000138115	-2.68995e-06	-7.66685e-05	-0.00023461	0.00016498	-4.45998e-05	-8.82351e-05	1.96746e-05	0.000150671	-5.6469e-05	-8.01491e-05	-4.41374e-05	0.000155405	5.9918e-05	-0.00015001	0.000186773	4.99146e-05	-4.3973e-05	2.34781e-05	-1.58569e-05	2.21066e-05	0.00013637	-3.10264e-05	-0.000170404	-7.8964e-05	-3.88099e-07	-4.71448e-05	-0.000123818	2.14981e-05	5.02336e-05	-6.32517e-05	-6.52439e-05	-1.77944e-05	-6.68876e-07	-3.05923e-05	9.12735e-05	-0.000112853	-1.20761e-05	1.02659e-05	3.73181e-05	0.000189538	8.68102e-05	-3.10037e-05	0.000120075	-0.000114501	0.00023063	-0.000167908	2.91265e-05	0.000108805
0.000100982	8.09198e-05	-1.71291e-05	-4.79409e-05	-6.19837e-05	4.58433e-05	-7.21473e-06	4.59577e-05	-9.17848e-05	-0.000111855	4.1384e-05	0.000138261	8.40191e-05	1.18193e-05	-1.63469e-06	-8.16139e-05	6.98276e-05	-1.44932e-06	-9.67379e-05	-4.82273e-05	4.64566e-05	9.74932e-06	-2.99546e-05	-4.51917e-05	9.54837e-06	-8.45231e-05	-4.44254e-05	-0.000183338	-4.77101e-05	-4.75006e-05	1.13587e-05	-5.20475e-05	-1.46275e-05	1.11474e-05	-4.48094e-05	6.72321e-05	-0.000170424	-9.25099e-05	-5.17235e-05	8.53431e-05	-5.11155e-05	3.64517e-05	4.17185e-05	-7.78403e-05	-5.30477e-05	3.7716e-05	8.45599e-05	3.11391e-06	4.35959e-05	5.6375e-05	-7.41692e-05	-1.44138e-05	-2.04407e-05	-2.27975e-05	-0.000112176	0.000117227	8.77502e-06	1.46394e-05	3.52878e-05	2.93667e-05	-8.89917e-05	-3.56656e-05	7.6579e-06	5.40765e-05	7.68305e-05	-9.17375e-05	3.87336e-05	-8.38287e-06	-6.82754e-05	6.18333e-05	4.58385e-05	4.54114e-05	6.93503e-05	5.35964e-05	-0.000110472	-4.58823e-05	1.8956e-06	-1.02614e-05	-8.79043e-05	-5.78239e-05	-3.00963e-05	-0.000114755	-9.90545e-05	4.605e-06	-3.18349e-05	6.57674e-06	5.26085e-05	-5.67923e-05	4.17008e-05	1.59059e-05	7.49025e-05	-1.80923e-05	3.96212e-05	-2.14886e-05	9.74337e-05	-2.43633e-05	9.73827e-05	-9.50156e-05	3.67001e-05	-8.80184e-06
-0.000210746	-8.38604e-06	-0.000356122	2.52637e-05	0.000118216	-3.71557e-05	0.000132464	-0.000427125	0.00045363	4.43125e-05	2.04633e-05	-3.7277e-05	0.000225247	-0.000399588	-0.000130315	9.54285e-05	0.000124834	-4.79629e-05	0.00027286	0.000342115	3.40986e-05	2.43105e-05	-0.000120198	5.66723e-05	-0.000377142	0.000379346	-6.38099e-05	0.000353587	0.000388435	-0.000242203	0.000108823	-0.000385675	0.000113742	0.00012801	0.000236122	-0.000172892	0.000186235	-0.000177865	7.27258e-05	5.87787e-05	0.00060006	0.000454425	0.000350094	0.0001994	0.000278875	-7.58733e-05	-8.55228e-05	-6.79949e-05	-0.000131839	2.23407e-05	-8.89748e-06	3.41562e-05	0.000130757	0.000183982	0.000185371	-0.000453634	0.000176504	0.000293684	-9.68405e-05	-0.000385958	-1.74695e-05	0.000244826	6.22865e-05	0.000113752	-0.000103121	5.57302e-05	-0.000156739	0.000260992	0.000104599	-0.0003409	7.52273e-05	-0.000318147	-0.000269383	4.72509e-05	-1.65766e-05	-0.000388662	0.000367162	-0.000163447	-4.90787e-05	-0.000592972	-0.000329126	0.000312146	0.000104987	-0.000188419	-7.93995e-05	-7.92633e-05	-6.87763e-05	0.000444397	0.000239577	-0.000149776	0.000153789	-0.000406415	4.8047e-06	0.00011925	-0.000280559	0.000152071	-0.000326253	-5.99371e-05	0.000170861	0.000191376
-0.00249372	0.000590933	0.000431817	0.000524982	-0.00172643	-0.00100246	0.00120477	-0.00166155	0.000552402	0.000481039	-0.00171148	-0.000955571	0.000333935	9.85803e-05	0.000460259	-0.000215472	0.000826276	0.000766449	-0.00107583	-0.00102492	-0.000158455	-0.00102285	-0.00052417	0.00158639	0.00152199	-0.000306392	-0.000216749	6.28055e-05	-0.00129493	-0.000498773	-0.00230725	-0.000544272	7.8781e-05	-3.77815e-05	-0.000546361	-6.85907e-05	-0.000887549	0.000243804	0.000398483	-0.000223898	5.29968e-05	-0.00100998	0.00151579	-0.000712809	0.000430637	-0.00128202	0.000314023	-0.000599284	-0.000258367	0.00060276	-0.000577582	0.00056895	-0.000802774	-0.00211822	0.00196429	-0.000576325	-2.16435e-05	-0.000467474	-0.000629195	-0.000986937	0.000557449	-0.000549158	-0.00172196	0.000650117	-4.73183e-05	0.000865228	5.84951e-05	0.00033724	0.000231937	-0.000380606	-0.00115801	-0.00153961	0.000944352	0.000775572	-0.000872073	-0.00116506	0.000989287	-0.00171145	-0.00200875	9.99097e-05	0.000876017	0.00130783	0.000281776	0.00138572	-0.000802877	-0.000834819	9.11759e-05	-0.000497928	-0.00118219	-0.000660241	-0.00140266	-0.00134356	0.00171883	0.00130688	-0.00147292	-0.00113176	-0.000591176	0.00122827	-0.000861232	0.000647482
5.41903e-05	-2.9861e-07	0.00046425	0.000321467	0.000160993	-0.000311018	-3.89523e-05	1.56541e-05	2.95748e-05	-8.28648e-08	-0.000215058	9.52166e-05	-0.000203831	-0.000294358	7.23001e-05	0.000116524	1.51573e-05	-0.000150222	-5.2484e-05	-0.000259161	0.000282	-2.96463e-05	0.000174002	0.00013431	-8.01153e-05	-1.2374e-05	0.00027203	0.000338599	0.000131792	0.00025287	-0.000510108	0.000503114	9.0002e-05	9.61549e-05	3.26671e-05	-0.000172465	9.89843e-05	9.74223e-05	0.000481686	-0.000203797	-0.000188527	-0.000141642	0.000264357	0.000113295	7.26014e-05	0.000214193	9.01496e-05	2.97069e-05	-0.000264865	-0.00037946	5.81156e-05	0.000117254	0.000204002	0.000433889	-8.57666e-05	0.00016988	-2.39756e-05	-0.000213245	-0.000126369	0.000208329	-0.000287709	-0.000455109	1.66874e-05	-0.000197087	3.71775e-05	0.000366744	-6.26797e-05	0.000437784	0.000203237	-0.000236281	2.76675e-05	-5.65526e-05	0.000221492	-0.000505475	1.59583e-05	0.000298557	0.000163079	-0.000270773	-7.79489e-05	0.000154267	0.000485305	0.000263692	6.08005e-05	0.000198379	-0.000271792	-4.53134e-05	6.19499e-05	0.000249365	-0.00021914	-0.000187679	-2.05132e-05	-3.80768e-05	8.55929e-05	0.000174578	9.45855e-05	-0.000328304	0.000205067	0.000405113	-8.54658e-05	-3.81599e-05
0.000110886	-4.83856e-05	0.000694429	0.000573226	-1.52266e-05	-0.000326806	-9.19925e-05	0.000128444	-0.000101381	0.000104359	-0.000213821	0.000215794	-0.000403241	-0.00051593	-5.55236e-05	-2.1664e-05	-0.000120335	-0.000540373	0.000146018	-0.000174925	0.000215975	-0.000216809	0.0001455	0.000111159	-8.02974e-05	9.5708e-05	0.000180062	0.000702291	0.000565562	0.000714156	-0.000497451	0.000552131	0.00021863	-6.27092e-05	8.29664e-05	-0.000103766	0.000222462	0.000348371	0.000646919	-0.000483179	-0.000125828	-0.000127588	0.000116336	0.000395602	0.000246195	0.000348857	-4.25802e-05	-9.63221e-06	-0.000345326	-0.000511765	-1.63229e-05	0.000267795	0.00056533	0.000812697	-9.54698e-05	0.000192019	0.000164135	-0.000129167	-0.000192844	0.000252438	-0.000204366	-0.000980705	-9.56715e-05	-0.000373405	0.000216797	0.00045399	-0.000177615	0.000393051	0.000186854	-0.000457902	6.99667e-05	0.000237614	-6.43193e-05	-0.000788849	0.000131627	0.000439556	0.000132465	-0.000119977	0.000290688	-7.19647e-05	0.00083187	0.000270014	7.78948e-06	3.63421e-05	-0.000246816	-0.000100459	-7.48493e-05	0.000391398	-0.000301958	-6.99137e-05	-0.000180505	-0.000167643	9.30285e-05	0.000178505	0.000302963	-0.000257815	3.52796e-05	0.000866908	0.000345265	-0.000400968
7.70973e-05	-0.000210293	-4.54022e-05	-0.000236621	6.55595e-06	-0.000105087	6.19643e-05	6.37113e-05	6.37326e-05	-5.15021e-05	5.52708e-05	8.07549e-05	1.91315e-05	-0.000134712	0.000118876	-0.000153288	7.94884e-06	0.000157079	4.26481e-05	7.27426e-06	9.32208e-05	8.14983e-05	-5.48434e-06	3.10043e-05	-0.000136172	6.9216e-05	0.000144535	-0.00050043	-0.000251399	-0.000489567	-1.38804e-05	7.72145e-05	4.72826e-05	-0.000105796	-0.00016263	3.13467e-05	0.000230512	-0.000202253	0.00031714	-7.1408e-05	-0.00017614	-1.12679e-05	-0.000120241	0.000128607	-0.000143087	-0.000150602	-0.000392348	0.00013264	0.00018686	1.91031e-05	0.000242095	-0.000441436	5.71992e-05	-0.000169252	5.18776e-05	0.000144179	-8.12549e-05	0.000210021	0.000106427	0.000300194	-8.91369e-06	0.00029256	0.000197871	-0.000161786	6.43675e-05	-7.5243e-05	8.55075e-05	2.1303e-05	-0.000231382	0.000333858	-0.000136072	9.98093e-05	-5.8137e-05	0.000192243	0.000149555	-0.000102697	-0.000114502	-6.3318e-05	5.48032e-05	0.000177994	7.73668e-05	-8.36939e-05	-0.000267979	-3.61e-05	-2.54465e-05	0.000174193	0.00021878	-0.000115874	-0.000113002	0.000189685	0.000167278	0.000129996	-0.000163575	-0.000278174	4.70713e-05	0.000234217	0.0001321	-0.000233826	0.000211945	0.000362569
-0.00021584	0.00161125	0.000675048	3.38772e-05	0.000359158	-0.00102163	0.000878327	-0.000337848	0.000496951	0.000106463	-0.000804735	-0.000185309	0.00015042	-0.000381187	-0.000363512	0.000100698	-0.000294694	0.00105516	-0.000911356	-0.00201669	0.000702773	-0.000258293	-0.000803615	0.000809982	0.00080319	0.000691374	-0.000687324	0.000224005	-0.000744096	-0.000551925	-0.000949871	0.000109777	-0.000372578	-0.000487211	-0.000531011	-4.46793e-05	-0.00161374	-0.000874277	-2.34568e-05	-0.000321151	-0.000245971	0.000561665	0.00241466	-0.000431376	-0.0010272	-0.000499948	0.00162492	-0.000533674	0.000484441	-0.000430401	-9.87391e-05	0.00142418	0.000587969	-0.000823396	6.55972e-05	0.000840531	-0.000745561	-0.000780829	-0.000230108	1.93646e-05	-3.25589e-05	-0.000476734	-0.000544624	0.000550384	3.80422e-05	-0.000188121	-0.000176614	0.000455191	-0.000579265	0.000433091	-0.000680613	-0.00146213	0.00190574	0.000599904	0.000246989	0.00014646	0.000886701	-0.000773758	-0.000646092	-0.000143776	-0.000115539	-0.0003495	0.000217836	0.000378868	-0.000630229	0.000302269	-7.32954e-05	-6.11248e-05	-0.000100318	-0.000426782	0.000602428	-0.000461893	0.000788366	0.000534008	-0.000516643	-0.0008968	0.000375862	-0.0013331	-0.00107695	0.000837312
0.000247332	0.000200762	5.74306e-05	-0.000156429	-3.71759e-05	2.65508e-05	9.64866e-05	1.06105e-05	-0.000143122	-0.000244052	0.000125974	0.000235066	0.000202646	4.47109e-05	7.74451e-06	-0.00018729	0.000237472	6.05241e-05	-0.000129559	-0.000174581	0.000196075	4.39227e-06	2.48485e-05	-0.000153363	-6.36076e-05	-0.000102133	-6.61905e-05	-0.000520983	-0.000170753	-0.000268506	-7.53007e-05	-9.95017e-05	-2.2347e-05	2.14783e-05	-0.000177763	0.000229218	-0.000313184	-0.000248034	-0.000152819	0.00011244	-0.000262103	-4.11193e-05	0.000154874	-0.0001675	-0.000127599	4.82425e-05	0.000120314	0.000108619	0.000173591	6.94587e-05	-0.000199187	-0.000249908	-1.3812e-05	-6.56641e-05	-0.000221407	0.000226002	-2.11206e-05	2.51491e-05	0.000121518	0.000100119	-6.81883e-05	-7.10344e-05	2.80673e-05	6.2407e-05	0.00016232	-0.000117174	0.000129569	1.65345e-05	-0.000335196	0.000251244	9.85663e-05	4.0018e-05	0.000292034	0.000187725	-0.000157693	-0.000185749	3.05498e-05	-2.77619e-05	-0.000172257	-5.90279e-05	2.7063e-05	-0.000284613	-0.000224044	3.27757e-06	-6.28595e-05	2.05161e-05	0.000173873	-0.000138789	0.000120169	8.58799e-05	0.000207275	8.20117e-05	1.26906e-05	-4.93509e-05	0.000234795	-8.28222e-05	0.000305768	-0.000269014	3.35133e-05	0.000146197
-0.00028571	0.000142791	-1.13329e-05	-6.97254e-06	0.000422652	0.000379125	7.59634e-05	-0.000154427	-0.000143045	0.000183416	5.72472e-05	-0.000225565	-0.000153109	-0.000355284	-3.55986e-05	-0.000197233	0.000163071	0.000108192	-0.000520162	9.50117e-05	0.000313352	-0.000521468	0.00014742	0.000356334	0.000274566	-0.000325006	0.000762978	7.56974e-05	-0.000242999	0.000166924	-1.99553e-07	-0.000124281	0.000170498	5.34796e-05	-4.91181e-05	-0.000145408	0.000320225	-0.000131264	0.000254832	0.000297967	-8.63075e-05	-0.000345452	-0.000615758	7.95064e-05	0.000310906	-0.000648433	-0.000428474	0.000247832	-0.00038859	0.000102799	0.000724385	-0.000227884	3.78667e-05	-0.000434785	0.000142665	-8.343e-05	-0.000196638	0.000355418	7.29368e-05	0.0002518	0.000565693	-4.78236e-05	-0.00027008	0.000568162	-8.34956e-05	6.75615e-06	-0.000155475	0.000493723	-0.000437676	3.69793e-05	0.000317389	-0.000619024	-7.68216e-05	7.94761e-05	-0.000134477	0.000524732	0.000350931	-0.000215015	-0.000116938	0.000306924	1.92113e-05	-5.17124e-05	-0.000262163	-1.74664e-05	1.04583e-05	-0.00079835	0.000343316	0.000430931	0.000491182	0.000306319	0.00020326	-8.14448e-05	0.000175081	4.14222e-05	-0.000465681	0.000133859	-3.87161e-05	0.000184887	0.000418503	-6.42822e-05
-0.000107624	0.000619833	-0.000997353	-0.0010519	0.000565983	0.00131166	-7.63108e-05	0.00055005	0.000309058	0.00069693	-0.000313909	-0.000636405	-0.000107363	-0.000498613	0.000984111	0.00086943	0.00119062	0.000404167	-0.000547746	-0.000241216	0.000223718	-0.000666778	0.00011101	0.00019974	0.00179819	-0.000868146	0.0014111	0.000433002	-0.000655987	0.000788797	-0.000761865	0.00011948	0.000223226	0.000986387	-0.000480434	0.000135417	0.000476158	-0.000599619	-0.00112255	0.000528153	-0.00108457	-0.000853398	-8.40008e-05	0.000174441	-0.000208569	-0.000471514	0.00103175	0.000327279	-6.6056e-05	0.000129986	0.000855155	0.00102792	0.000885642	-0.000445534	-0.000505955	0.000212711	-0.00103585	8.39108e-05	0.000770246	0.000103477	0.000106099	1.57277e-06	0.000363442	8.42423e-05	-8.16626e-06	0.000444704	0.000890056	0.00041974	0.000461172	-0.000303407	0.000452925	7.18588e-05	0.000463241	-0.000819625	-0.000267601	0.00111712	-0.00120318	-0.00101738	0.000969753	0.000932561	0.000477283	0.000987961	-0.000877528	-0.00013572	-0.000570685	-0.000283356	0.000146506	0.000836114	0.0010916	-0.00024203	0.000234649	0.00118942	0.000972991	-0.000518839	-0.00122281	0.000117025	-0.000394402	5.83722e-05	-0.000709747	0.000847479
-0.000593439	-0.000193325	-0.00053039	0.000281214	0.000189492	-0.000301338	0.000259222	-0.00102873	0.00118379	-0.000148758	3.06446e-05	-0.000126857	0.000673564	-0.00112465	-0.000221589	0.00012207	0.000778931	-0.000224653	0.000585688	0.000325513	0.000273534	-0.000264453	8.5216e-05	-0.000381963	-0.000824003	0.00163684	-0.000459529	0.00071932	0.00074193	-0.000798237	-0.000156496	-0.00116111	0.000642221	0.000173868	0.000436518	-0.000328787	-3.94819e-05	-0.000717174	0.000105802	0.000277924	0.00159731	0.00138541	0.00121367	0.000250386	0.000621901	0.000229735	-0.000100584	-0.000438888	-0.00037326	0.000293016	0.000312244	0.000149126	0.000264754	0.000506478	0.000430915	-0.00149875	0.000354942	0.000296339	8.06683e-06	-0.00115678	1.68416e-06	0.000493229	-1.26317e-05	0.00074565	-0.000430589	-0.000202659	-0.000216627	0.000788587	0.000212217	-0.000843303	0.000116523	-0.00132751	-0.00030478	0.000180082	-0.000282204	-0.00121026	0.0007838	-0.000124628	0.000100976	-0.00180859	-0.000759352	0.000646547	-4.49852e-05	-0.000750643	-0.000765906	-0.000352481	1.97711e-05	0.000885526	0.000566717	-0.00054076	0.000409451	-0.000481247	0.000319585	0.00044622	-0.000506197	0.000192385	-0.000627672	-0.000375867	5.05372e-05	0.00066476
-0.00223821	-0.000467444	-0.000492688	0.000992461	-0.000527402	0.00137644	-0.000403459	-0.00107234	0.000633953	1.94744e-05	-2.4634e-05	-0.00102577	-0.00123751	0.000732777	0.000921131	-0.00129926	-0.000578602	0.00138451	0.000653205	0.000868152	9.41796e-09	-0.00105127	0.00249312	0.000155784	-0.00158661	-0.00119847	0.000222797	0.00286419	0.00156401	-0.00125858	-0.00028146	0.000835388	-0.00341578	-0.000667628	-0.000622533	-0.00029957	0.00211353	0.000175347	-0.000926521	-0.000278983	-0.000399408	-0.00205547	-0.00107745	9.95258e-05	-0.00034125	-0.00144704	-0.0016757	-0.000962903	-0.00182807	-0.00029056	-0.00108639	-6.47914e-05	0.000695146	0.000298747	0.000348634	0.00111487	0.000563935	-0.00154627	-5.20531e-06	9.86294e-05	0.000603166	-0.000386366	-0.00132717	0.000479024	-0.000424391	0.000622241	-0.000981626	-0.000447116	0.00115009	-0.000242813	-0.00107864	-0.000320963	-0.000293663	-0.00182227	0.00138112	-0.000126266	-7.55109e-06	0.000788914	-0.00106628	-0.000281949	0.00126985	-0.000771259	0.000132074	0.00209864	0.000351175	0.000183364	-4.72154e-05	-1.74171e-05	0.000933587	-0.00158577	-0.00181631	-0.00389183	0.000898704	0.00165844	-0.000425246	-0.000690277	0.00094423	0.0026168	-0.000913378	0.00141874
0.000241495	2.66129e-05	-0.000124493	-0.000151082	-0.000100002	3.42526e-05	0.000130791	-0.000100096	-0.000157872	-0.000153813	0.000298834	0.000294579	6.96083e-05	7.30415e-05	-1.34353e-05	-0.00028422	-6.02152e-05	-0.000152972	-0.00019521	-7.36029e-05	8.02212e-05	5.40256e-05	-0.00014763	-0.000231067	-7.81934e-05	-3.83442e-05	6.88795e-05	-0.000576946	6.96903e-06	-9.81186e-05	-5.83102e-06	-0.000338025	-4.82774e-05	-9.24798e-05	-7.52735e-05	0.000213739	-0.000513651	-0.000197097	-0.000249963	0.000192707	8.32885e-05	0.00015591	2.86625e-05	-0.000384706	1.46802e-05	0.000105808	9.76689e-05	3.50268e-05	0.000119499	9.45667e-05	-0.000280639	-3.393e-06	-0.000172671	4.06726e-05	-0.000203383	0.000275543	4.64486e-05	0.000130752	0.000204409	5.11338e-05	-2.73749e-05	-0.000185642	7.57442e-05	0.000198674	0.000144769	-0.000233522	-1.82689e-06	-2.12044e-05	-0.000290846	0.000285335	9.36117e-05	1.55977e-05	0.000172705	2.58895e-05	-0.000286594	-0.000268952	4.695e-05	1.37384e-05	-0.00017827	-0.00019748	-8.46846e-05	-0.000232396	-0.000138826	-0.000229959	0.000100464	-9.08898e-05	0.000220282	-0.000223742	0.00019726	5.15394e-05	0.000161544	-5.6669e-05	2.51555e-05	-2.1189e-09	0.000165377	3.32832e-05	0.000169044	-0.000199243	-2.63213e-05	-0.000259752
4.34568e-05	-0.000289167	0.00150325	0.00108058	-0.000451672	-0.000749404	5.62706e-05	-6.57709e-05	0.000179266	0.000188412	-0.000508533	0.000575146	-0.000497572	-0.000908115	-0.000819987	-0.000461031	-0.000426313	-0.0011142	0.0004134	-0.000996153	0.000428069	-0.000486809	2.26716e-05	8.34428e-05	-1.7093e-05	0.000827399	0.000175123	0.00118076	0.00138091	0.00133187	-0.000750041	0.000846867	0.000780727	-0.000311406	-0.00034147	0.000121056	6.44347e-05	0.000910607	0.00110567	-0.00122214	-0.000219826	-8.27091e-05	0.000609516	0.000884412	2.13291e-06	0.000866939	-0.000185127	-0.000212836	0.000122475	-0.0010985	-0.000296377	0.00078657	0.0012625	0.00116654	0.000300203	0.000730856	0.000235539	-0.00012057	-0.000223952	0.000152236	-0.000504764	-0.00143911	0.000162181	-0.000755298	0.000646414	0.000750836	-0.000534015	5.49314e-05	0.000687411	-0.000885184	-0.000526968	0.00073005	0.000241606	-0.00114747	0.000400457	0.000467732	-0.000338737	-0.000244352	0.000517918	-0.000241421	0.00132954	0.000525031	-0.000212492	0.000315381	-0.000549211	-2.13769e-05	-0.000200073	0.000257682	-0.000796107	-0.000189769	-0.000532145	-0.000132543	-0.000161518	0.000896458	0.000789897	-0.000444138	-1.0493e-05	0.00112406	8.42447e-05	-0.000754612
9.73993e-05	-0.000651645	-0.000378212	0.000117549	-0.000424674	-3.58357e-05	-0.000409413	-0.00049568	-0.000530727	-0.000515079	1.44724e-06	-0.000167897	-0.000725125	-0.000111787	0.000723891	0.00102404	0.000115	-0.000262402	0.000332747	-0.000425644	-0.000189358	-4.91756e-05	0.000327746	0.000134229	0.000147285	8.39507e-05	0.000605364	0.000160106	-0.000374023	-0.00021954	0.000296168	-0.000153565	9.6327e-05	0.000323946	0.00120465	-0.000377003	2.97549e-05	-0.000653761	0.000290671	-3.13733e-05	-0.000352727	-0.000266554	0.000301106	8.84768e-05	0.000109229	0.000127322	-0.000154508	8.1237e-05	-0.000931895	0.000195216	0.00100923	-0.000329049	0.000403665	-0.000255758	-0.000236369	-0.00016648	0.000540424	-0.00021856	-0.000423888	-0.000328892	-0.00023183	0.000229994	-0.000445425	0.000196684	-0.000472253	-0.000209761	-0.000494896	-0.000200853	0.000388043	-0.000383091	-0.000242144	-8.66044e-05	-0.000182127	0.000282683	-6.68451e-05	-0.000215795	0.00011705	9.82884e-05	-0.000263377	6.12028e-05	0.000232009	0.000255738	0.00025812	-0.000335844	-1.42661e-05	0.000415824	0.000204235	3.66715e-05	-0.000639927	-0.000394896	0.000211563	0.00014625	-5.5427e-06	-0.000395615	7.63783e-05	-1.85555e-05	0.000165609	0.000311195	0.000272996	0.000154132
-0.00204503	0.00035166	-0.000677967	-0.000844136	0.00184962	0.00230324	0.000599679	-0.000203085	0.000669081	0.000831475	0.000181776	-3.16734e-05	-0.000162336	0.00101572	-0.000936323	-0.000425589	-0.000767195	0.000137581	0.000269914	-0.00111239	0.000942473	-0.00143337	0.000348019	0.000143411	-0.000395802	0.000440723	-0.000224223	-0.00012955	0.000336932	-0.00217152	-2.14064e-05	-0.00064387	-0.000449611	-0.00121986	0.000270565	0.00015318	-0.000815612	-0.00185755	4.5559e-05	0.000451229	0.000267991	-0.000578691	-0.0012983	0.000466037	-0.00176109	-0.00178077	-0.0010696	0.000358734	0.00132621	-0.00112516	-0.00106878	0.00107381	0.00170359	0.000627447	0.000436223	2.47132e-05	0.000818215	-0.00074333	-0.00163	0.00215243	0.000594065	0.000417029	0.000252391	0.00231558	0.000291679	5.22357e-07	0.00127782	7.7771e-05	0.00165815	-0.000107744	-0.000304152	6.35317e-05	0.000466314	-0.00165789	0.000103751	0.00170696	-0.000290657	-0.000944603	-0.000604063	0.00121999	0.00154687	-0.000362378	-0.0016356	0.000387704	-0.000708597	1.03084e-05	-0.000714838	0.000332391	9.58652e-05	-0.000161987	-0.000544629	-0.000701918	-0.00091893	0.000374967	-0.000901601	-0.000389235	0.000502834	-0.00111573	-8.581e-05	0.00150443
-0.000150689	-0.000481548	0.000794688	0.000312995	0.00043905	-0.00182295	0.0013991	-0.00120596	0.00201924	0.00157526	0.000981887	-0.00135717	-0.000934095	0.000440056	0.000695938	0.000168886	-0.000623525	0.000102399	0.000486863	0.00039165	4.73188e-05	6.72531e-05	0.000454397	0.000105975	-0.0013022	-0.000229246	0.000610606	0.00023366	-0.000624832	-0.000999166	-0.000939237	0.000150666	0.000655478	-0.000436543	-0.000393007	-4.6838e-05	0.00032277	0.00041415	0.000911359	-0.00199006	-0.00126352	-0.00190259	0.000480556	0.00102672	0.000272738	-0.00139563	-0.000798455	0.000331914	-0.00015371	-0.000973168	0.000975074	-0.00132027	-0.00012486	-0.000510375	0.000656117	-0.000151966	-0.00177981	-0.00112464	-0.000489054	0.000988737	0.000614022	0.000464628	-0.000799046	-0.000367687	-0.00039663	0.000990286	0.00091576	0.000518503	-0.000809303	0.00170455	-0.00073591	-0.0018115	0.00170135	0.000991065	0.000552576	-0.000189203	-0.000195645	-0.00238147	-0.00188948	0.00215141	0.00108202	0.000218525	0.00152796	-0.000332745	0.000985541	-0.000293335	-0.00072602	-0.000269131	-0.000887489	0.000271352	0.000171108	0.00125973	-0.000789807	0.000451445	-6.2517e-05	-0.000881904	0.000533217	-0.000315782	-0.000798848	0.000518603
-0.00323164	0.000958655	-0.000972713	-0.000840997	-0.000139932	-0.00018316	-0.000796195	-0.00225662	0.000839282	0.000823565	-0.00202669	-0.000253791	-0.000731565	-0.00207882	0.002056	-0.000388212	-1.31094e-05	0.0018021	-0.00164059	0.00130625	0.000769486	-0.00123744	-0.000796184	-0.00222853	-0.00095881	-0.00109237	0.00133034	0.00327959	0.00240115	-0.00213249	-0.00013795	0.00162262	-0.00144816	-0.00239974	0.001365	-0.0013543	-0.000182549	-0.00197684	0.00127927	0.00342403	0.000476657	3.88631e-06	-0.00098159	-0.0019148	-0.000278084	-0.0022702	0.00185491	-0.00168292	-0.000568248	0.00122098	-0.00116465	0.00452317	0.00151958	-0.000899881	-0.000595721	-0.000836473	0.000931799	-0.00153074	-0.000279069	-0.00165328	0.00189711	-0.000148933	-0.00234867	0.00208622	-0.00363733	-0.0019759	-0.00231159	0.00104993	-0.000873363	-0.00185502	0.000289001	-0.0029523	0.00247404	-0.000761797	6.20631e-05	0.000798289	0.000434147	0.00180842	-1.89381e-05	-0.000891128	-0.00128841	-0.00225149	-3.82721e-05	0.000328939	0.000844965	0.000559501	0.00138143	-0.000348695	0.00151001	-0.00250868	0.000690481	-0.00250441	-9.66391e-06	0.000296882	-0.00227263	-0.000865088	0.000311011	6.87662e-05	-0.00195054	0.000558222
0.00270976	-0.000814083	0.00169239	-0.00207309	-0.00162173	0.000506014	0.0016983	-0.00536484	0.00449432	-0.000432764	-0.00332056	0.00232379	-0.00279734	-0.000295364	-0.00229857	-0.00205639	-0.00344917	0.00187496	0.000436053	-0.00183734	0.00932127	0.00448275	0.0033714	-0.00204591	3.29594e-05	0.00150784	0.00150078	-0.00311819	-0.00336595	-0.00149923	0.00120516	0.0061163	0.00103205	0.0018135	-0.00222335	0.000463127	-0.00216174	0.000867477	0.0014874	-0.0020946	-0.00727482	-0.00121321	0.00860987	0.000997262	-0.00325249	-0.000435216	0.000349724	-6.72906e-05	0.00265153	-0.00391492	-0.00258006	-0.000382777	0.00202021	0.00271911	0.000345966	0.00141415	-0.0028762	-0.00101067	0.00135114	-0.00302159	-0.00285036	0.00137682	0.00403253	-0.00265787	0.00190802	0.00246709	-0.000665111	-0.00380025	0.00327761	0.00354647	-0.000260523	-0.00301917	0.00407037	0.000133141	-0.00187017	0.00171385	-0.00327874	-0.000555134	0.000339332	-2.51781e-06	5.43999e-06	-0.00117185	-0.00416943	-0.000886446	0.000162669	0.00255596	-0.00171659	0.00374092	0.00253884	-0.00165745	0.00220216	0.00285095	0.00313432	0.002657	0.00293839	0.00145221	-0.00380498	-0.000681067	-0.00205318	0.00199784
-0.00168266	-0.00256201	0.00022679	0.000439243	0.00125521	-0.000992272	-0.00104183	-0.00022367	-0.000575927	0.00124468	0.00069723	-0.000630226	-0.00093663	0.00110687	0.00051171	-0.000126949	-0.000587012	6.33115e-05	0.000147882	-0.000211405	-0.00149054	-0.00119404	0.0021188	-0.000995495	0.000439893	0.00293803	0.000973132	-0.00129057	0.000158737	0.00118058	-0.00134929	-0.00132663	-0.00131749	0.000239684	0.000516336	-0.000538812	-0.000235184	0.00021712	-0.00187505	-0.000471939	0.000249163	0.000435179	-0.000595698	-0.00176115	0.000261008	0.000969029	-0.00138725	-0.00014698	0.00107128	-0.000696701	-0.000466378	0.00151252	-0.00141644	0.0020138	0.00236157	0.000130553	-0.000480496	-0.00107742	0.00221153	-0.000760066	0.00341994	0.000309199	0.00211366	0.000149111	-0.000537019	0.00262551	-0.000135736	-0.00108543	-0.00115718	-7.36758e-05	0.000304631	-0.00271429	0.000213141	-0.000986802	-1.35025e-05	-0.00208107	-0.00121113	-0.000761476	0.0014017	0.00195371	0.00148006	-0.000992909	-0.000250969	0.00110763	0.000969495	-0.00254635	0.000120966	-0.001433	0.000114447	-0.00117614	-0.0018715	0.00119083	-0.000620447	0.00184215	-0.00186476	0.000587427	6.3365e-05	0.00121201	-0.00135515	0.000641654
-9.28067e-05	0.000542877	-0.00040217	-0.000786814	0.000692707	-7.97624e-06	0.000474879	-0.000651451	0.00125391	0.00112851	-0.000292619	-0.00126012	0.000153338	0.000369217	0.000988964	-0.000192806	0.000217005	0.00148327	0.00228127	0.00116665	-1.11003e-05	-0.000152712	0.000214249	-0.000166779	-0.000394345	-0.000118546	0.000150458	5.5886e-05	0.000732219	0.000758661	0.00079979	-0.000231022	0.000271986	0.000291601	-0.000170992	-0.00205905	0.000780282	0.000598528	0.000295606	-0.000182384	-0.000623335	0.000506016	0.000551366	0.000354179	0.00149011	-0.00107736	0.000351823	0.00016714	-0.00035206	-0.00065687	-8.95983e-05	-0.000148868	-0.00057958	0.00015857	0.000575147	-0.00137006	-0.000380009	-0.000149684	0.00106373	0.000129019	-0.00011765	0.000811105	-0.000215356	-0.000599371	5.2466e-05	0.000786388	-0.00036631	-0.000972835	-0.000460304	0.000840058	0.000112239	-0.000790618	0.000235917	0.000737708	-0.000103981	-0.000404015	0.000366947	0.000232738	-0.000522681	-0.000287929	-0.00153045	-0.000655149	0.00132159	4.79298e-05	0.00184192	-0.000858328	-0.000593454	6.161e-05	0.000282158	9.17319e-05	0.00144074	-0.000635378	-0.000901266	9.51935e-05	-0.000792983	0.000263892	-0.000570717	-0.000874288	-0.000617145	0.000584333
-0.000294686	0.000862822	-0.000669549	0.000164258	0.00157564	-1.98388e-05	0.000763304	-0.00140926	0.00108244	0.000155415	-0.000850808	-0.000322117	0.000600073	5.13549e-05	0.000135219	-0.0010641	-0.00118299	-0.000951083	0.000261009	0.00125464	-0.00121102	0.00148846	-0.000595562	-0.000408765	-0.00040575	-0.000350442	0.000857934	0.000742429	0.000780516	5.81482e-05	0.000708468	0.000266234	0.000203288	-0.000450733	0.000398662	-9.94554e-06	-0.000379266	0.000676212	0.00130382	8.55601e-05	3.20645e-05	0.000392752	-0.000319653	-0.000205106	0.000629801	9.72179e-07	0.000627462	-1.17254e-05	-0.000120582	-6.10829e-05	-0.00164544	0.000274329	-8.9415e-05	-0.000576039	0.000131902	-8.27446e-05	0.000324391	-0.000220683	0.000229924	-0.000203334	0.000721825	0.000410818	-0.000314877	-0.000262674	-0.0010865	-0.000576986	-0.000833895	0.000223021	-8.55548e-05	-0.00119513	0.000803338	0.000447952	1.72857e-05	-1.06005e-05	6.43348e-05	0.000288786	0.000334281	0.00033509	-0.000421099	-0.000507822	-0.00162641	-0.000457544	0.00156603	-0.000561142	0.00140002	-8.36462e-05	0.000109064	0.000264344	0.00133495	-0.000311544	-0.000453078	-0.000442414	-0.000176413	0.000128614	0.000140814	0.000657796	0.000204435	0.000682432	-3.3479e-05	-0.000552317
-0.00145488	0.00180062	-0.00130668	-6.39847e-05	0.00168492	0.000945456	0.000640233	-0.00199646	0.00159168	0.000555612	-0.000576427	-0.000624872	0.00106043	-0.000411735	-0.000124052	-0.000685312	-0.00104742	0.00057174	0.000255628	0.00134099	-0.00018981	0.000276921	-0.00104963	0.000139976	-0.000926383	-0.000734103	0.000839415	0.00141715	0.00192338	4.58614e-05	0.00076969	0.000904183	-0.000174652	-0.000740697	-2.40077e-05	-0.000818366	0.000985682	0.000357781	0.000828762	-0.00019683	0.000744407	0.000652515	0.000206644	0.000328926	0.000353965	-0.000847182	0.000262415	-7.4025e-05	2.0704e-05	2.45922e-05	-0.00189362	0.000849141	0.000772443	-2.05577e-05	0.000570511	-0.0010866	0.000671951	0.000286433	-0.000259164	0.000108879	0.000946429	0.00101947	-0.00015542	-6.90993e-05	-0.00085033	-0.000517193	-0.000207534	0.000444547	0.000511362	-0.00127674	0.000660098	-0.000173239	0.000154575	1.1379e-06	0.000606023	0.000458784	0.00111737	0.00017437	-0.000435197	-0.000291753	-0.00119262	-0.000333251	0.000922396	0.000363904	0.00189457	0.00030932	-0.000502969	0.000319999	0.00240967	8.87953e-06	0.000469092	-0.00143209	-0.000352725	0.000421046	-0.000426759	0.000162433	-3.82494e-05	-0.000374639	-0.00019919	0.000608584
-0.00323512	0.000380984	0.000249068	-0.00313781	-0.00172168	-7.4784e-07	0.000920086	-0.0017673	-0.000408392	0.00218839	-0.00146828	-0.00132576	0.000563449	0.00185808	0.00277009	-0.000873039	0.00281933	-0.000941327	2.5216e-05	-0.00388788	0.00237708	-0.00116091	-0.000330462	0.00234264	0.00128282	-0.00216696	0.00106302	-0.000733051	-0.00220924	4.41433e-05	-0.00474852	-0.00148823	0.00079319	-0.00224267	-0.00274531	-0.00144611	-0.000198839	0.000827459	0.00265943	-1.42714e-05	-0.00017697	-0.00378705	0.00225643	0.00100101	0.000245069	-0.00463728	0.000850901	-0.00114371	0.000761507	0.00196043	-0.00227157	-0.000344847	-0.0001488	-0.00412104	0.00109123	-0.00160739	-0.00242192	-0.00185199	-0.000476032	-2.47383e-05	0.00162609	-0.00248401	-0.00217116	0.000951518	0.00108822	0.00298329	-0.000951252	0.000891756	-0.000912567	0.000244109	0.000308341	-0.00435569	-0.00116462	0.00136717	-0.00270633	0.00141345	0.00182624	-0.00395082	-0.00361363	0.00255972	0.00223784	0.00154902	-0.00145368	0.00248933	-0.00153736	-0.00354552	0.000505372	0.00030974	-0.00110952	-0.00200706	-0.00131729	-0.00158353	0.00228073	0.00191897	-0.00143863	0.00245559	-0.000187857	0.00178954	-0.000150288	0.00193253
0.000233513	0.00327586	0.00201404	-0.00229397	0.00110258	-0.00106036	-7.58348e-05	-0.00292413	3.83755e-05	-0.000402647	-0.00338074	-0.00199813	-0.000280619	-5.1632e-05	-0.00184356	0.00174299	-5.21392e-05	0.0032764	-0.00300373	-0.00214905	0.00460953	0.00208821	-0.0012451	0.00395698	0.00197625	0.00280971	0.000387417	-0.00135335	-0.00305873	-0.00173632	-0.00151879	0.00332302	0.00143742	-0.000302176	0.000610391	-0.00099289	-0.0048262	-0.00205829	0.00194452	-0.000441955	0.000992925	0.00439813	0.0064473	-0.0012863	-0.00167099	-0.00289142	0.00488169	-0.000520033	0.00244681	-0.00304383	-0.00152491	0.00322751	0.00179828	0.000240665	-0.000387594	0.00015294	-0.00216473	-0.00237581	0.0014882	0.00101029	0.000399835	-0.00230602	0.00195179	-0.000666908	0.00156129	-0.00101888	-0.00307114	0.00181718	2.28747e-05	0.00264384	-0.000320917	-0.00306358	0.00309572	0.00287505	0.000611137	0.00279586	0.000607516	-0.00344096	0.00244826	-0.000795093	-0.00113839	0.000336751	-0.00270525	-0.00153308	-0.000957187	0.0034602	-0.00316667	0.00165637	0.00153299	-0.000445953	0.00149303	-0.000224122	0.0030335	0.00151349	-0.00178995	6.77871e-05	-0.000627751	-0.00284631	-0.0012482	0.00273822
-0.00173171	-0.00127339	0.000565048	-0.000383399	0.000886976	0.000536942	0.0014988	-0.00165814	0.000863013	0.00135968	0.000702548	4.24454e-06	0.000794147	0.000452332	-0.00141448	-0.0018647	0.00194691	0.000274549	-4.12802e-05	9.77218e-05	0.000556608	-0.00125609	0.00188159	0.000904263	0.000117824	0.00193816	-9.96497e-05	-0.00216902	-0.000751067	-0.00225073	-0.00142222	-0.000232601	0.0011758	-0.000607503	0.000508656	0.000857351	-0.000717146	0.000278218	0.00082771	0.000525775	0.000995085	-0.00094748	-0.000729717	0.000734653	-0.00131323	-0.00209038	-0.00109648	0.00168072	0.000877845	0.000110407	-0.000725208	-0.00163875	0.000843637	0.00132798	-0.000126824	0.00116227	-0.000846782	-0.000361971	-0.000460869	0.00130261	0.00135883	-6.22387e-05	0.00121981	0.00221961	0.00151275	-0.000337759	0.000941838	-3.45673e-06	0.00394223	0.000433707	7.2586e-05	-0.000781889	-0.000694944	-0.00215644	-0.00152356	0.00162044	-0.00189927	-0.000548288	-0.000867268	0.00043512	0.00174774	0.000854616	-0.00160217	0.000374404	-0.0001599	0.00054277	6.86806e-05	-0.00133321	-0.000696703	0.00010877	-0.00133055	0.000272919	-0.000122108	0.00137279	-1.09334e-05	-0.000105609	-0.000302415	0.000603122	-0.000230875	0.00177956
2.40501e-05	0.000204916	3.26905e-05	-8.07647e-05	-0.000375217	-1.08169e-05	7.47269e-05	0.00030811	-0.000253753	-0.000370561	0.000241563	0.000434201	0.000287814	0.000115044	-4.4671e-06	-0.0003259	0.000322247	9.26273e-05	-0.000197031	-9.73723e-05	-3.44431e-05	-5.29943e-05	8.92883e-05	-8.71022e-05	2.10829e-05	-0.000174995	-0.000274849	-0.00067248	-0.000207691	-0.000259913	0.000104024	-0.00026087	-0.000141524	0.000205416	-0.000149965	0.000269632	-0.000605851	-0.000186973	-0.000316497	0.000334842	1.73705e-05	0.000163065	8.07725e-05	-0.000321718	-0.000172137	0.000151794	0.000260857	8.01794e-05	-1.02626e-06	0.000170426	-0.000399453	-3.96449e-05	-0.000128108	0.00015509	-0.000240595	0.000250682	0.00017696	6.59219e-05	0.000138512	7.49456e-05	-0.000140091	-8.35257e-05	0.000150481	0.000146395	0.00023271	-0.000211059	0.00016205	-0.000138327	7.17807e-06	0.000269697	0.000161478	2.4065e-05	0.000145043	0.000125198	-0.000601626	-0.000193837	2.76083e-05	-1.1451e-05	-0.000295078	-0.000223424	-1.07589e-05	-0.000350848	-0.000173863	7.2305e-05	-5.87843e-05	6.22116e-05	-1.94029e-05	-0.000196134	0.000134468	0.000149194	0.00023328	-0.000193465	0.000133202	0.000185592	0.000304951	-7.71484e-05	0.000144841	-0.000233143	4.46586e-05	-9.57401e-06
0.0015047	-0.000686921	0.00112904	-9.93122e-05	-0.00044753	0.000339174	0.00067172	-0.000987377	-0.000519728	-0.00133408	-0.00132095	0.00101147	0.00119459	0.00040874	0.00114873	0.0003983	0.000619749	0.00103065	-0.00246882	-0.000161069	-0.000112754	0.0018051	0.000701976	0.00172373	-0.000379116	-0.000758258	0.000217545	0.00112701	-0.00231627	-0.000330858	0.000657901	0.00247639	-0.00124027	-0.000369145	-0.000517829	0.00155608	0.000555931	0.000526521	-9.97877e-05	0.00108291	0.000409881	-0.00269659	-0.00319501	0.000510782	7.29622e-05	-0.00190306	-0.000974202	0.00193272	0.000701007	-0.00028927	-0.00161099	0.000951384	0.000148937	-0.000563979	0.0025728	-0.00121633	0.00117914	-0.00100877	7.085e-05	0.00110214	0.00154634	-0.000856405	0.00171574	-4.61792e-05	-3.25791e-05	0.00196203	-0.00070838	0.0016552	-0.00175677	0.00118044	-0.0015482	-0.000404478	0.00184069	0.00177419	0.000885806	0.000138681	-0.000146819	-0.000539598	2.89636e-05	0.00113389	0.0015945	-0.000762181	0.000532961	0.000899025	-0.00149793	0.00159833	0.000295913	0.001383	0.000838886	0.00116414	-0.00188334	-0.00159072	0.000714281	-3.95569e-05	0.00102045	0.00190824	-0.000895113	0.000122153	0.00228847	-0.000267559
-0.00133227	0.000305205	0.000120505	-0.000263117	0.00281932	0.00120971	-6.78525e-05	-0.000246686	0.000910583	0.000652805	0.00181489	-0.00102576	-0.00147934	-0.000257945	0.000609374	-0.00172836	-0.000462429	-0.000368536	0.000577246	-0.00139576	0.00176383	0.000500653	0.00292522	0.000548436	-0.000580641	-0.000307939	0.0028581	0.000664975	-0.0013545	0.000616604	-0.00176717	0.000342695	-1.34577e-05	0.000705537	-0.000507418	-0.00285065	0.00309665	0.00100506	0.00125334	-0.000142547	-0.00178698	-0.00255782	0.000287091	0.00158556	0.000729129	-0.00161338	0.000432534	0.000395025	-0.00180405	0.00148173	0.000750473	-0.00233519	-7.41362e-05	-0.00160487	-0.00221807	-0.00127428	0.000276793	-0.00168511	0.00210517	-0.00044258	0.00274896	0.000123509	-0.000364427	0.00116069	-0.00184643	-0.000347373	0.0007307	0.00185848	-0.00177949	-0.000244566	0.000887686	-0.00344249	0.000171558	-0.00138127	0.00219539	0.00230873	0.00241633	0.000929397	0.000411892	-7.31486e-05	0.000182824	-0.00131885	0.000103101	0.00137253	0.00172041	-0.00255367	0.000262858	0.00358747	0.00211206	0.000504751	0.00290739	0.00236421	0.000996876	0.000464387	-0.000986145	-0.00135334	0.00148443	0.000603855	0.00110565	0.00157
-0.00221804	-0.000645771	-0.000731565	0.000136773	0.000484505	-0.00202875	-6.25641e-05	0.00222092	0.00553339	0.000965206	0.00336636	-0.000366371	-0.00281634	0.0012907	0.000699385	0.00141623	0.000375666	0.00325341	-0.00181952	0.00091089	0.000880055	0.00192267	0.00321425	-0.000551394	-0.00222949	2.53752e-05	-0.00337352	0.000255088	-0.00398089	-0.00727999	-0.00161669	-0.000175823	-0.00148262	0.00150363	-0.00110492	0.00198755	-0.00120343	-0.00174572	0.00251735	-0.000405611	-0.00108066	-0.00168721	0.000588317	0.00165612	-0.00481964	-0.000862176	0.000558262	0.00221512	-0.00127754	0.000516984	-0.00179297	0.00227505	0.00159248	-0.00142193	-0.00358424	-0.000124463	-0.0046203	-0.00125441	-0.00114471	0.000950847	0.00304474	0.00216874	-0.000853808	-0.00288332	-0.00296188	-0.00085317	0.00529076	0.00224318	0.00212401	0.00333588	-0.000592653	-0.00178646	0.00139225	-0.00276596	0.00214311	0.00199261	-0.00348489	-0.00319104	-0.000456791	0.00178094	0.00171305	0.00101394	0.00285652	-0.000519169	-0.000854767	0.00129128	-0.00324318	0.00146433	4.44271e-06	-0.00123724	0.000737982	0.00476986	0.00135738	-0.00132406	-0.00149064	0.000900273	0.000428927	-0.00275435	-0.00145715	0.00355567
0.00588835	-0.000775163	-0.00449795	-0.00278178	0.00205774	-0.00546084	0.00146735	0.000994605	0.000820441	-0.00201414	0.00164251	-0.00112841	-0.00520659	-0.000387282	0.00181297	0.00166866	0.000236672	-0.00398273	0.00315974	0.000293084	0.00181875	-0.00121182	-0.000203827	-0.00118893	-0.00265987	0.00333094	0.00544389	-0.00183443	-0.0040851	-0.00406802	0.000253954	0.00541777	-0.00216527	0.00213923	-0.00189367	-0.00143657	0.00498321	-0.000558615	-0.000327293	-0.00252908	-0.00297483	-0.00360416	0.00105843	-0.000508205	0.000240716	0.00079644	-0.00202596	-0.000142074	0.000370435	0.00259744	0.0078438	-0.00081511	-0.00269169	-0.00426685	0.00103709	8.04174e-05	-8.5892e-05	0.000158914	-0.000595095	7.8787e-05	-0.00289765	0.00139567	-0.00154032	-0.00145446	1.82458e-05	-0.00344223	0.00145174	-7.46408e-05	-0.00329641	-0.00176588	-0.0046805	0.000920535	0.0007562	0.00191563	0.00153642	0.00244693	-0.000269948	0.000391489	0.00145131	-9.91005e-05	-0.000903019	6.73308e-05	-0.00244735	0.00334126	0.00197941	-0.00120669	0.00349341	0.00191759	0.00150729	0.00072145	0.004193	0.00672074	-0.00439989	-0.00209099	0.00194974	0.00145687	-0.000460582	-0.000935456	8.38051e-05	0.00214213
0.00166312	9.9815e-05	0.000255451	0.00303239	0.0020837	-0.00156138	-0.00206449	0.00223966	-0.000215163	-0.00199368	-0.00218172	0.00183356	0.000521877	-0.000323739	0.000613658	0.00260629	-0.000948631	0.000366442	-0.00163079	0.000649451	0.000354805	-0.000177509	0.00111284	-7.60365e-05	0.000597694	0.00188204	-0.00153094	0.00236939	-0.00181774	0.000128399	0.000630143	0.00190489	-0.00313654	0.00178096	0.00199847	-0.00308008	0.00414898	-0.0015233	-0.0015336	-0.00136576	-0.00370265	-0.000964897	0.000461561	-3.04433e-05	-0.00322481	0.00108505	-0.00353925	-0.000651125	0.0020566	-0.00106169	0.00148722	0.00161552	0.00106296	-0.00145937	0.00132064	-3.70481e-05	0.00034972	-0.000784308	-0.00247376	-0.00110509	-0.00247284	0.00197702	0.00121085	-0.000340016	-0.00015564	0.0016639	-0.00136879	-0.00130779	-0.00105552	-0.00134881	-0.00278424	-0.000716316	-0.000207612	0.00157353	0.00305363	4.81787e-05	-0.000426409	-0.000651002	-0.000251699	0.000917166	0.000471589	0.000688261	-0.00194423	0.00263075	0.000683853	-0.000232489	0.00151459	0.000707582	-0.00177303	-0.000275385	-0.0017432	-0.000902924	-0.00189396	-0.00118587	0.000934066	-0.00206514	0.00117847	-0.000385539	0.00266046	0.00255813
-0.00139421	-0.00159739	-3.44467e-05	0.00210425	3.68827e-06	-0.002316	0.000736683	-0.00134416	-0.00297001	0.000198712	-0.000613112	-0.000939894	-0.00248651	-0.00181075	0.00180711	0.000152641	4.25521e-05	-0.000903939	0.00302232	-0.00535426	-0.0010202	-0.00159288	0.00168234	0.00350177	-0.000832969	0.00137275	0.00279427	0.00398274	-0.00129835	0.000618863	-0.00392658	-0.00079915	0.000381146	0.00199173	0.000482333	-0.00360339	0.000697914	0.000633623	0.00394287	-0.00290446	-0.00106398	-0.00159302	0.00470296	-0.000433771	0.001476	-0.000316573	0.00346977	-0.000895146	-0.00215624	7.493e-05	0.00142302	-0.000796655	0.0017177	0.0006012	-0.000699834	0.00210661	0.00117309	-0.00144297	-0.000309956	-0.0019897	-0.00318348	-0.00246411	-0.0039276	-0.00142264	-0.000130894	0.00496242	0.00446626	0.00114252	0.00392105	-0.00219717	-0.00335505	0.00253471	-0.00298464	-0.00201318	-0.000923167	-0.00146927	0.00126075	-0.00096993	-0.000909636	0.00177107	0.00431184	0.00334296	0.00160657	0.00510135	-0.00276293	-0.000361847	0.000507007	0.00366726	-0.00410519	-0.0015798	0.00114293	-0.000116185	0.00156189	0.00217398	0.000789839	-0.000481672	-0.00175193	0.00298913	-0.00184119	0.00345043
-0.00171274	0.00405165	0.000719041	-0.00252855	-0.00150262	0.00229046	-0.00289715	-0.00248882	0.00591088	-0.00110716	-0.00386597	0.000313205	0.00157756	-0.000855383	0.00185809	0.000325082	0.000718029	0.00137421	0.00219838	-0.00275763	0.00203291	0.000692197	0.00579095	-0.000180612	-0.00115099	-0.00081973	-0.000580202	0.00404352	0.000559482	0.00205126	-9.88503e-05	0.00295179	-0.0018032	-0.000764637	0.000255714	-0.00300619	0.00438502	-0.00033692	0.00265317	-0.000543943	-0.00258112	-0.00396581	-0.00237163	0.00475817	-0.00153415	-0.000283966	0.00113636	-0.00157318	-0.00330534	-0.00136532	-0.00215938	-0.000328206	0.000184537	-0.000212194	0.00168994	-0.000972784	0.00187796	-0.00279886	0.00227421	-0.00171582	-0.000196703	-0.000427082	-0.000292887	-0.000859625	0.00114703	0.000569857	-0.00286212	0.00073666	-0.000457175	-0.00255619	0.000983974	0.000516237	0.00286241	-0.00131953	0.00166125	-0.00070952	0.0016032	-0.00541433	0.0034004	0.00119705	0.00229239	0.000684247	-0.00100836	0.00377021	-0.000844198	-0.00119004	-0.00235994	0.00409188	0.00153529	-0.00463663	-0.000245299	-0.00316949	0.000141356	0.00370403	-0.00189138	0.00142691	9.44105e-06	0.000803497	0.00449488	0.00299741
-0.000602386	-0.00345592	0.00624218	0.00321489	-0.000678983	0.00357603	-0.00264344	0.000368542	0.00347472	-0.00682167	-0.000547598	0.00447567	-0.00335024	-0.00331925	-0.00374857	-0.000245372	-0.000764229	-0.000463827	0.00105267	0.00529342	9.60303e-05	-0.00284088	0.00169364	-0.000677291	0.0010003	-0.00038896	0.00527099	-0.00160003	0.00789494	0.00206719	-0.000641118	-9.02408e-05	-0.00180131	0.00266704	0.00170091	0.00292921	-0.00571297	-0.00182122	-0.00013588	-0.000760766	0.00381328	0.00179282	-0.00409918	0.0037441	-0.000905049	0.00223561	-0.00690145	0.00226007	-0.0062917	-0.00244	0.00475436	-0.00322538	0.00734856	-0.00621639	0.00208806	-0.00456476	0.00273348	0.00647392	-0.00480417	0.00697554	-0.00369503	0.000861604	0.00380461	0.00255124	-0.00403666	-0.00160858	-0.00913692	-0.000730825	0.00559616	-0.00510502	-0.000814419	0.000798545	0.00837681	-0.00116338	0.000459159	-0.00210654	-0.00412838	-0.00787128	0.00215171	-0.00115442	0.000898529	0.00515389	-0.000927077	-0.000537089	-0.00120588	0.00210714	-0.00305234	0.000457355	-0.00332741	-0.00131805	0.000991496	0.000856001	0.00108005	-0.000147377	-0.00362952	-0.00791984	-0.00175858	0.00318201	0.00453697	0.000528564
-0.00342941	-0.000156928	-0.00230398	-0.00806268	-0.000407063	0.000616413	0.00207696	0.00186599	-0.00059316	0.00433867	0.00243002	-0.00318299	0.000665294	0.000535311	0.00176237	-0.000977006	0.0076663	-0.00102767	0.00391407	-0.00375942	-0.000541754	-0.00654324	-0.000217352	0.00513266	0.00108843	0.000490631	0.00713685	0.00336868	-0.00193054	-0.0024946	-0.00404298	-0.00361772	-0.00169845	-0.00144045	-0.00189734	-0.00253414	0.00190034	-0.00270865	0.00592659	-0.000562213	0.000105316	-0.0058249	-0.00169806	-0.000304397	-1.54274e-05	-0.00831404	0.00142329	0.00149819	0.0018249	5.7868e-06	0.00247332	0.00215537	0.000209943	-0.00327463	-0.000276929	-0.00082706	0.00129723	0.00246789	0.00313748	0.00758379	0.00399871	-0.0021534	-0.00459197	0.00371275	-0.00136087	0.00101357	-0.00263519	0.00177029	-0.00446544	0.000955604	0.00163992	-0.00535646	-0.00261691	-0.000817219	-0.00197635	0.000998817	0.00287142	-0.00518953	0.000406028	0.00365206	-0.000206929	0.000184049	-0.00299061	-0.000135141	0.00185674	-0.00660824	0.00043586	0.00392506	-0.000692028	-0.000677825	0.000528756	0.00319263	0.000994504	-0.000894511	-0.00253698	0.00473195	-0.000649502	-0.0003002	0.00356696	0.00346608
0.00731531	0.00163446	0.000376684	4.51567e-05	-0.00178859	-0.00122823	-0.00225405	-0.00166801	-0.00265718	-0.00187823	-0.00654573	6.89155e-05	0.00146387	0.00163021	0.000854517	0.00307057	0.0056345	0.00155133	-0.00413889	-0.00245951	-0.00861274	0.0010664	0.000441436	0.00645158	-0.000186433	-0.0016138	0.00260854	0.00297889	-0.000117494	0.00291949	0.00386003	0.00281589	-0.00196804	0.000663155	0.00244994	0.000750232	-0.00425497	-0.0032871	0.00376151	-0.00206292	-0.00181609	-0.00214428	-0.00308904	0.00279828	0.000578863	-0.00197239	0.00156888	0.00127966	-0.000735245	-0.00533786	-0.0031051	0.00240518	0.00215318	0.000575952	0.00520025	-0.000580443	0.00602755	-0.00140926	0.00349573	0.00321966	0.00308975	-0.000314074	-0.00402817	0.00145674	-0.00314475	3.38444e-05	-0.00804569	0.00387964	0.0028612	-0.00430791	-0.00165463	0.000295199	-0.000719464	0.000834018	0.00120534	0.00197591	-0.000590522	0.000588041	-0.00367966	0.00368049	-0.0021322	-0.00217821	-0.000971412	-0.00523617	-0.00243822	0.00286221	-9.62839e-05	0.00357275	-0.000579111	-0.00117641	-0.00739728	-0.00112961	0.00164868	-0.00281867	0.0069651	0.00635357	-0.00106417	0.000183232	0.0019909	0.0014397
0.00229064	-0.00369011	0.000877012	-1.69834e-05	1.11126e-05	0.00145009	0.000454007	-0.00114046	-0.00191397	0.000705854	-0.000874225	0.00162951	0.000710655	0.00205338	0.00101428	-6.02753e-05	-0.00146381	0.00209068	-0.00351859	-0.000923279	-0.000855538	0.00168927	-0.000583571	0.00138492	0.000299735	-5.67945e-05	0.0014282	0.00177814	-0.00379812	-0.00382217	0.00197807	0.00234116	-0.00174642	0.00171007	-0.000450178	0.00197414	0.00128339	-0.000764936	4.20885e-05	0.00100103	0.000650418	-0.00291614	-0.00284439	0.000665317	0.000109218	-0.00170586	-0.00283488	0.00150008	0.000878074	0.000900473	0.00179431	0.000113474	0.00250236	-0.000220684	0.0032025	9.22555e-05	0.000177908	-0.000163609	-0.00115326	1.39073e-05	0.00220825	-0.000781352	0.00254977	0.00153458	0.000935947	0.00209257	0.00401806	0.00208209	0.000883207	0.00128065	-0.00409914	0.0011177	-0.00132076	0.00302114	0.000113545	-0.00127354	0.000511808	-0.000503484	-8.03433e-05	0.001367	0.00393088	0.000425732	0.00152222	0.00193718	-0.00151973	0.00250359	0.000269861	0.000247797	-0.000539158	0.00194443	-0.00146255	-0.00228806	0.000607234	-0.000490084	0.00108268	0.00368126	0.000737575	-0.000615393	0.00320198	-0.000388577
0.000504471	-7.87515e-05	-0.000110598	-6.21081e-05	-0.000172459	-0.000208347	0.000569952	-0.00012603	-0.000278953	-0.000256585	0.000288464	0.000477244	0.000215094	4.60052e-05	7.49517e-06	-0.000599644	-1.0619e-05	-0.000350884	-2.52143e-05	-0.000420807	-7.81301e-05	0.000100742	-0.000264451	-0.000455366	-0.000105428	-2.27733e-05	0.000192537	-0.00074056	-7.81047e-05	-0.000211531	-3.34619e-06	-0.000290588	-7.49267e-05	-3.39735e-05	7.60713e-05	0.000282552	-0.000661137	-0.000212547	-0.000143389	0.000288772	-7.38643e-05	-0.000146869	-0.000100379	-0.000344882	-0.000121642	0.000170791	-0.000130928	0.000175817	0.000302182	5.75066e-05	-0.0003307	-0.000220624	-0.000175901	-6.08539e-05	-0.000270936	0.000388913	0.000208082	0.000220306	0.000305597	0.000196611	-0.000216728	-0.000131716	-1.284e-05	0.000471175	0.000272432	-0.000347117	-0.000157587	-0.000125491	-0.000258212	0.000431139	0.000143554	5.01476e-05	0.000261693	2.76213e-06	-0.000436442	-0.000132053	4.68382e-06	0.000106534	-0.000468102	-0.00010294	-9.2583e-05	-0.000476749	-0.000266667	-0.000328529	0.000144028	0.00018771	0.000532608	-0.00034883	-0.00011486	8.05081e-05	0.00031482	5.1775e-05	-8.61734e-05	-6.71528e-05	0.000542969	-5.89409e-05	0.00019795	-0.000110412	8.10517e-06	-0.000268616
-0.00254358	0.000346407	0.00010764	0.00106588	-0.000727633	0.000866549	-0.00239488	0.00132493	0.00210314	-0.000192625	0.00170817	-0.000860219	-0.00165415	0.000483924	-0.000146223	0.00126739	-0.000368183	-0.000423544	0.000524782	-0.000244148	0.000507011	0.000643166	0.00366124	-0.000252634	-0.000818711	0.000274359	-0.000574936	0.00150407	-0.00059935	-0.000127336	0.00068158	-0.00131754	0.000481774	0.00061676	0.00116339	-0.00136446	-0.0006799	0.000852183	0.00109786	0.000502394	0.000124485	-0.000742331	-0.00173548	0.00105314	0.000658766	0.00135621	0.00139269	-0.000220015	-0.00198381	-0.000430886	-0.000908388	0.000956012	-0.0017494	-0.000470258	-0.00201276	0.000399913	-0.000404313	-0.0010296	0.000403998	-0.000651535	0.000953635	0.000955451	0.000678378	-0.00159409	-0.00136341	9.453e-05	-0.000257009	-0.000977764	-0.000379061	-0.00166365	-0.000507623	0.000674785	-0.000309518	-0.000314717	0.000101865	-0.000296819	-0.000540209	-0.00157728	0.000370668	0.000784346	-6.59875e-05	-0.000880012	0.00201305	0.000634873	-0.00068504	-0.00108892	-0.00123233	0.0016684	-0.000263193	-0.00175349	-0.000987318	-0.000826787	-0.000825731	0.000229834	-0.000942871	0.00117072	-0.000193314	-0.000408214	0.00093542	-0.00121059
0.00443265	0.00609013	0.00233353	-0.00617409	-0.0046455	-0.00120519	0.00215665	-0.018312	0.0134588	0.00167893	-0.0103086	-0.00219162	-0.0059436	0.000383563	-0.00294685	0.00303627	-0.00651994	0.00767505	-0.00343606	-0.0016048	0.0221971	0.0159557	0.00835735	0.00165432	0.00118158	2.77092e-05	0.00553656	-0.00296279	-0.00866415	-0.00811707	0.00322036	0.0130818	0.00833519	0.00395096	0.00657884	-0.00587302	-0.0094235	-0.00527955	0.00406419	-0.00774154	-0.015592	0.00410271	0.0261974	0.00506832	-0.00815709	-0.0058738	0.00540384	-0.0013801	0.0102798	-0.00877935	-0.00546399	0.002124	0.00435261	0.00679164	-0.000591255	0.00563403	-0.0116493	-0.00882116	-0.000732718	-0.0108224	-0.00897047	0.00614316	0.00860935	0.000937906	0.00619813	0.00376626	-0.00763014	-0.00717396	0.00749838	0.0154179	6.81315e-05	-0.0122243	0.0116564	0.00115389	-0.00134725	0.00620238	-0.00869738	-0.00913551	0.00142228	0.00509844	-0.00544737	0.00212744	-0.00620023	-0.00628944	-0.0016325	0.00773746	-0.0162376	0.0117698	0.00387013	-0.00981259	0.0154576	0.00259537	0.0117319	0.010231	0.00159778	0.00405844	-0.0126713	0.00328534	0.000478233	0.00496677
-0.000289029	0.00326782	-0.00122136	0.000190524	-2.35224e-05	0.00218471	-0.000572381	0.00589159	0.00072935	0.002288	-0.0010362	-0.00206473	-1.37013e-05	-0.00109479	0.000801779	0.00324831	0.00606244	0.00691639	-0.00184693	-0.00143885	-0.000949594	-0.00510835	-0.000283371	0.00119401	0.00484698	-0.000970282	-0.00206629	0.00340605	-0.00127791	0.000612116	-0.00273964	0.000662759	0.000283797	0.00189266	-0.00345258	0.00309966	0.000234771	-0.00248808	-0.00425742	-0.00048545	-0.00411248	-4.60749e-05	0.00259862	0.0018707	-0.00204858	-0.000751552	0.00550522	0.00214839	0.00145466	-0.000776535	0.000140819	0.00599896	0.00497147	-0.00128179	-0.00314968	9.15532e-05	-0.00530424	-0.00104172	0.00341362	0.00166132	-0.00145427	-0.000395446	-0.00115518	-0.00127487	0.00184576	-6.27029e-05	0.00619203	4.82824e-05	0.00457282	0.000983184	0.00060862	0.000342681	0.00121811	-0.00212462	-0.001517	0.0029045	-0.00526466	-0.00229878	0.00235239	0.00111075	0.00129611	0.00566152	-0.000976769	0.00033223	-0.00218958	0.000411842	-0.000861484	0.00284875	0.00431103	-0.00272275	0.00120356	0.00345397	0.00538746	-0.000513155	-0.00494751	-0.000298795	0.000563137	-0.0014489	-0.00382494	0.00512328
0.000990682	0.00100303	0.0043411	0.00380221	-0.0034203	-0.000631184	-0.00103251	0.00139066	0.000738133	-0.0012099	-0.00250777	0.00174162	-0.000736028	-0.00118594	0.000408102	-0.000985529	-0.000186152	0.000971088	0.0023772	-0.00141663	-0.00551928	-0.00342484	8.07981e-05	0.000671744	0.00238635	0.00237989	-0.00241889	0.00193592	0.00178492	-0.00186704	0.00157891	-0.00017006	-0.00132449	0.00378534	0.00288456	0.000188715	-0.00248059	0.000142425	-0.00085965	-0.00131725	-0.000812343	0.00305204	0.00459889	-0.00106276	0.00142722	0.00233072	-0.00392649	-0.000648133	-0.000958614	0.000648274	0.000767801	0.0018289	0.00142231	0.00152566	0.00319962	0.0015874	0.00266254	0.000962038	0.000640632	-0.00416698	-0.00305543	0.000440101	-0.00198242	0.00230859	-0.00166046	-0.000148923	-0.000593807	-0.00145303	0.00229742	-0.00185783	-0.00106478	-0.00180409	0.000742975	-0.00209132	-0.0012513	-0.00385346	0.00136425	-6.8193e-05	0.000258717	-0.000640229	0.00164411	-0.000236105	0.000401745	0.00165023	-0.00100743	-0.00326159	-0.00275647	-0.00114483	-0.00360252	-0.00194282	0.00100915	-0.00356363	0.00062965	0.00379045	-0.0026042	-0.00219619	-0.00147816	0.00286257	0.00356526	0.000786288
-0.00184339	0.00128518	-0.000738672	0.000823086	0.00243738	-0.00458452	-0.000445095	0.00321426	-0.00234887	0.0030731	-0.000907193	-0.00154494	-0.00117831	-0.00106049	-0.000652888	0.001607	0.00440934	0.000163402	-0.00215202	0.000299316	0.00141885	-0.00107237	0.00224328	0.0016251	0.000546121	0.00140445	-0.00326952	0.00594363	-0.00188564	0.001781	0.00302069	0.000636488	0.000464282	0.0033968	0.00122333	-0.00105497	-0.00130961	-0.00256346	-0.000282388	0.00172597	-8.75374e-05	-0.00234697	-0.00376586	0.00149344	-0.00245464	0.0019335	8.04459e-05	0.00145546	-8.05261e-05	-0.00299988	0.00458208	0.00184525	-0.00055265	-0.00037091	-0.00260867	0.00103218	0.000837809	-0.00488171	-0.000462117	0.00112396	-0.00113074	-0.000822565	3.7204e-05	0.0028327	0.00227896	-0.001045	0.000547715	0.00483372	0.00404252	-0.000686487	-0.00268576	-0.00118133	-0.000599301	-0.00134822	-0.00670548	-0.000309466	0.00454214	-0.00139413	-0.00129616	0.00377821	-0.00144602	0.000897967	-0.0040244	-0.000623626	0.00374071	-0.000414711	0.00102872	0.000913453	-0.00094868	-0.00157119	-0.00211932	0.00131949	0.000938529	0.000858164	-0.000819106	-0.00266389	0.00256495	0.000349513	0.00239184	0.00315648
0.00148006	-0.000104403	-0.000293903	-0.00106303	-0.00179279	-0.00170941	-0.00238549	-0.00130743	-0.000809381	-0.00338932	0.000639498	-0.000854711	-0.00182905	0.000348513	0.002741	0.00137932	0.00183146	0.000632062	0.00129874	-0.000469603	-0.00428829	9.325e-05	-0.000577697	-0.000372867	-0.000421808	0.000642978	0.00253138	0.000608801	-0.00137209	-0.00105192	0.000962729	0.00109043	-0.000922416	0.000366635	0.00527652	-0.00309576	-0.000289663	-0.000304404	0.00260095	0.000406175	-6.14366e-05	0.0004631	0.00113591	-0.00115721	0.000973627	-0.00227484	0.000549795	0.000627058	-0.000427293	0.00111509	0.00121294	0.00015866	1.21962e-05	-0.000720833	-0.000631252	0.000354676	0.00116807	-0.000499919	-0.00058784	-0.00201693	-0.000975764	0.00163857	-0.00240714	0.000236987	-0.00202944	-0.00217505	-0.000677495	7.74527e-05	0.00206891	-0.00112215	8.58113e-05	-0.000773307	-0.001529	0.000331838	0.00129099	-6.116e-05	-0.00189402	0.00138999	0.000168761	-0.000627421	-0.000960089	0.00121883	0.00175913	0.000266278	0.000192028	0.000629073	0.000549301	-0.000761878	-0.00177303	-0.000267012	0.0015742	0.00200789	-0.000125866	-0.00116258	0.000133403	-0.000166338	-0.00185949	-3.05888e-06	-0.00154686	0.000315431
0.0118612	0.00336289	-0.00767171	-0.000474496	0.0118022	-0.00716363	0.00341361	-0.00227743	0.0159254	0.00404095	0.0031133	0.000158809	-0.00950603	0.00510159	0.00535842	0.0043696	-0.00382362	-0.00299728	0.00296909	0.00555449	-0.0016062	0.00432784	0.00511219	-0.00223873	-0.00692854	0.00436204	0.0135863	-0.00195435	-0.00332175	-0.000448853	0.00336061	0.00781816	-0.00107407	0.00480412	0.0074444	0.00105198	-0.000742114	-0.00217034	-0.00473821	-0.0132281	-0.0107454	-0.00737713	0.00532621	-0.000442556	0.00315168	0.00495729	0.000908365	0.000855979	-0.0058757	-0.00472479	0.0082388	0.000412405	-0.00398243	-0.0132088	0.00331577	-0.00662948	-0.00214253	-0.00732749	0.00108861	0.00113496	-0.00118227	0.0133381	-0.00155281	-0.00014457	-0.0112974	-0.00775748	0.00440258	0.00165657	0.00181972	-0.00586637	-0.00920206	-0.00465095	0.0113531	0.00130842	0.000690065	0.00345886	-0.0056005	-0.00686321	-0.00445513	0.00126432	-0.00461779	-0.000260076	0.00655895	-0.000805398	0.0163801	-0.00030156	0.0027009	-0.000165946	0.00510365	-0.0050729	0.00155794	0.0138476	-0.00205499	-0.00926753	0.00831471	-0.000180089	-3.79427e-06	-0.00109487	-0.00342359	0.00843597
-0.000485129	0.00144468	-0.00177455	0.00120242	0.00369674	0.000940641	0.00192777	-0.00376687	0.00383322	-9.82205e-05	-0.00352105	-0.00404403	-0.000530193	0.00234001	0.00286556	-0.0036476	-0.00265816	-0.000114786	0.00462345	0.00273534	-0.000952453	-0.000117273	-0.000324643	-0.00404059	0.00135568	0.000762129	0.00103049	0.00192687	0.000675781	0.00123436	0.000481681	0.0037534	-0.00082673	-0.000590649	-0.000737726	-0.00165395	0.00263104	0.00319171	0.00128204	0.000581904	-0.00101834	-0.00329735	-0.00216431	-0.00144005	0.000987966	0.00160411	-0.000723169	-0.000916544	-0.00321933	-3.10887e-05	-0.00187983	-0.000686025	-0.00227932	-0.00274593	0.000358206	-0.00415214	-0.00140844	-0.000845178	0.000991661	-0.00162322	0.00120678	1.40959e-05	-0.00487356	-0.00287662	-0.00205498	-0.00310673	-0.0016718	-0.00109491	-0.000165851	-0.00244413	0.00201697	-0.000453069	-0.00094695	0.00242272	3.14565e-05	-0.000464722	0.0017794	0.00168967	-0.000671897	-0.00445096	-0.00527626	-0.00225976	0.00644628	-0.000644274	0.00500919	-0.00425059	0.000717702	-0.00204512	0.00150646	-0.00241711	0.000293324	-0.00211358	-0.00173779	-0.00130279	-0.00178045	-0.00194738	0.00317371	0.00216484	-0.00204803	0.00047548
-0.0107264	0.00114713	-0.00272351	-0.00653068	0.0183576	0.00818103	0.00514641	-0.0112064	0.0137694	0.0102212	-0.00528353	-0.00487099	0.00807621	-0.00230179	0.00234083	-0.0048485	-0.00656381	-0.00105904	0.0100506	-0.00174735	-0.0038709	0.004693	-0.00432289	-0.000196724	-0.00201962	0.00138564	0.00569175	0.0111457	0.00905064	-0.00304487	0.00657114	-0.00247153	-0.00156216	-0.00159464	0.00249319	-0.0129794	-0.00249668	-0.00305388	-0.00140616	-0.00234431	0.00456086	0.00602768	0.00154111	0.00236777	-4.00933e-05	-0.00275274	0.00415098	0.00389295	0.00492048	-0.0042378	-0.0123585	0.0145792	0.0137213	0.0019899	0.00812889	0.000777662	0.0113694	-0.00437098	0.00331581	-0.00127379	0.00515428	-0.000891656	-0.00224706	0.00264787	-0.00426726	-0.00408024	-0.0104849	-0.00621168	0.00291775	-0.00740811	0.00050358	0.00726834	-0.00606952	-0.00529347	0.00642104	0.00647238	0.000565617	0.00731755	0.00233204	0.000684535	-0.00851285	-0.00358863	-0.00294866	-0.00349486	0.00605398	0.000279165	-0.00218913	0.0029057	0.00464066	-0.0049014	-0.00273521	-0.00981213	-0.00491425	-0.00192335	-0.0044352	0.00353932	0.00254995	0.000558546	-0.000945606	0.00277725
0.00153565	0.0012736	-0.000592712	0.000145871	0.000366682	0.000804167	0.00235514	-0.000689123	-0.00216963	0.000723913	0.00263339	0.00184417	0.00116587	-0.000270326	-0.00247142	-0.000939375	-0.00208001	-0.00244394	0.000146181	-0.00177982	0.00230384	0.000177604	-0.0020369	-0.00349298	-0.00163952	-0.00137792	0.0004342	-0.00370833	0.000865039	-0.000328627	0.00133286	-0.00102221	-0.00086746	-0.00129287	-0.000638701	0.000881156	-0.00236519	-0.00256614	-0.0014102	8.92994e-05	0.00134624	0.000341276	0.00246174	-0.00247242	-0.000147964	0.00126916	0.000135196	7.95071e-05	-0.00011036	0.000418638	-6.29807e-05	-0.00145221	-0.000268464	-0.000209009	-0.00268889	0.00324179	0.0014256	0.00228734	0.00266585	-0.000454112	-0.000311795	-0.0010598	-0.000702276	0.0013783	0.00168248	-0.000750356	-0.00092633	-0.00260286	-0.00264208	0.00152206	0.000593248	0.000354482	0.000994015	0.00102855	-0.000919567	0.00236433	0.000762172	0.00264424	-0.0020509	-0.000597022	-0.00123512	-0.00383333	-0.00188501	-0.00134434	0.0016936	-0.000586894	0.00220049	-0.00232137	0.00106443	-0.000251896	0.00347775	0.000212689	-0.00127655	-0.000723692	0.00278879	-0.000171887	0.00225984	-0.00122891	0.000966139	-0.00217078
0.00930071	0.00337954	0.00321143	-0.00619729	0.00770935	0.00167563	0.000639697	-0.0149049	0.00332462	-0.00445947	0.000946929	0.00635132	0.00321927	-0.00451423	0.00249017	0.00387649	0.0146514	-0.00338426	-0.0181178	0.00258905	0.00741478	0.00215917	0.00457887	-0.00597848	0.00649764	0.0118151	0.0159745	-0.00452744	-0.0167977	-0.014473	-0.00500818	0.0175718	0.00365963	0.00378764	0.00156881	-0.00542891	-3.6532e-05	-0.00813054	0.00459406	-0.00373054	-0.0192035	-0.00993811	0.00794156	0.00222167	-0.00211522	-0.0110024	-0.00271704	0.00708895	0.0103901	0.0105465	0.0127565	0.000639152	0.0037739	-0.0113858	-0.00218109	0.00989743	-0.014462	-0.0129352	0.00259609	0.00101358	0.00617996	0.00032118	0.000153133	0.00284329	-0.00726436	-0.00439776	-0.0010814	-0.00163682	-0.0164636	-0.00247957	0.00127898	-0.0135126	0.0109211	0.00115026	0.00136257	0.00707416	-0.0057917	-0.00270557	0.00177383	0.0010614	0.00237899	-0.000731002	0.00428144	0.00557975	-0.00284972	-0.00976358	0.0122628	0.00818756	0.00539595	-0.00508153	0.00608147	0.0108906	0.00724397	-0.00328885	0.000151718	0.00138257	0.00909008	0.00570728	0.00511635	-0.000375106
-0.000663063	-0.00126596	0.00159251	-0.00168466	-0.000851868	0.000565389	0.00834186	0.00123345	0.0193505	0.0087277	-0.00192406	0.00158444	0.00274114	-0.00498356	0.00644535	-0.000785605	0.00739465	0.00877197	0.00709442	0.000719707	-0.00525463	-0.00854175	0.00459606	0.00203831	0.00180684	-0.00253108	0.00115077	0.00661553	0.00499748	0.00297414	0.00614755	-0.0107649	-0.00675135	-0.000941704	0.00159898	-0.0159098	0.00218228	-0.00734363	-0.00327326	-0.0083797	-0.0104375	0.00243237	-0.000260875	0.0085316	0.0084945	-0.0057668	0.00636098	-0.00241512	-0.00127547	-0.00275548	-0.00202908	0.00680379	0.00354046	0.00216422	0.00583696	-0.00523836	-0.00781647	0.00212435	0.011079	0.00634319	0.000695575	3.87605e-05	-0.00579125	0.00686383	-0.00797624	-0.000699598	-0.00866674	-0.0112412	0.00444767	0.0100191	0.00948133	-0.0108194	0.00448901	-0.00208342	-0.00872584	-0.00925932	0.00356351	-0.0100562	-0.00633962	0.00528085	-0.00252459	-9.28198e-06	0.00897382	-0.000381575	0.00681708	0.00338269	-0.00193365	0.00767383	0.00130047	-0.00486493	0.00194131	-0.00901528	0.00727202	-0.00105423	-0.00514182	0.0121515	-0.00500024	-0.0118161	0.000755901	-0.00134381
-0.0136464	-0.00157153	-0.000778887	-0.00959868	0.00655311	0.0129327	-0.00967924	-0.0137637	0.010624	0.00586137	-0.000678593	0.00343759	0.00738203	-0.00718919	-0.00260312	0.00513322	-0.00375775	0.0020279	0.00581166	0.00558222	0.00564263	0.00460507	-0.00192244	-0.00708934	-0.0175328	0.0103391	0.00191705	0.00617417	0.0156615	-0.00143281	0.00801321	-0.010452	0.00343491	0.00142682	0.00821411	-0.0157287	0.0016765	0.000178163	0.000995819	0.00200859	0.0120497	0.00990839	0.00360436	0.00312687	0.00848241	-0.00210047	0.00400781	0.0101503	0.00187001	-0.00205441	-0.00845371	0.0133372	0.00280775	0.00910916	0.000585025	-0.0127946	0.0106384	-0.000928646	0.00570299	-0.00592177	0.000687891	0.00253112	0.0101831	-0.00208963	-0.00700021	0.00350525	-0.00733382	-0.00659347	-0.00664442	-0.00553168	0.00240482	0.00190813	-0.00667053	-0.00701285	0.00849777	-0.0121627	0.00327367	0.000479742	-0.00154356	-0.0103831	8.71822e-05	-0.000121447	0.00166373	0.00350382	-0.00530827	-0.00557684	-0.000303127	0.010125	0.00637323	-0.0101948	0.00207807	-0.010526	-0.00357926	-0.00201262	-0.00591575	0.00189794	-0.00116441	-0.00277065	6.09738e-05	-0.000104129
-0.00236534	0.00105721	-0.00289697	-0.00390242	0.00169476	0.00347784	-0.000443273	0.00849076	0.00565237	0.00512767	0.00197161	-0.00261142	-0.00139539	-0.00177091	0.0036492	0.00200123	0.00378411	0.00864245	-0.000536	0.00050094	-0.00335924	-0.00552565	0.000244817	-0.0014105	0.00466597	-0.00281518	-0.000370183	0.00183836	-0.00110918	-0.000348165	-0.00319704	-0.00141908	0.00094771	-5.79096e-05	-0.00227403	0.00367203	0.00301166	-0.00477771	-0.00152137	-0.000608958	-0.00231552	-0.000723269	-0.00250124	0.00480309	-0.00349023	-0.00127554	0.0086248	0.0056975	-0.000863144	0.00224777	0.00178036	0.00493073	0.00423316	0.0012893	-0.00556575	-0.00229788	-0.00533323	-0.000941906	0.00141304	0.00267223	0.00113738	0.00132232	0.00210163	-0.000703082	-0.0017076	-0.00115927	0.00803943	0.00109198	0.00527644	-0.00145396	0.00388736	0.00149145	0.00148529	-0.00505522	-0.00224501	0.00630268	-0.0065923	-0.00545995	0.00379159	0.00293419	0.00227967	0.00525426	0.00200637	-0.00187166	-0.00266101	-0.00136212	-0.00276249	0.00562663	0.00343322	-0.00250554	0.00131938	0.0065556	0.0026135	-0.00418799	-0.00801819	0.00137512	0.00109015	-0.0018913	-0.00323474	0.00519334
0.00652809	-0.00589737	-0.0089102	0.00876757	0.0213263	-0.00521845	0.00504862	-0.00569491	0.00188745	0.00450936	-0.0107857	0.000674529	-0.0178608	-0.00962683	-0.0087667	-0.0029257	-0.0104948	-0.00408344	-0.00527967	0.00886324	0.00880837	0.0107228	0.0223804	-0.00630826	-0.000315431	-1.27318e-05	0.00331425	-0.0108848	-0.0121687	-0.00863949	0.00180493	0.0238365	-0.00600203	0.0214315	0.00784425	0.00434185	-0.000286022	-0.00874932	-0.00570731	-0.0200724	-0.00653156	-0.00711078	0.003421	0.0142735	-0.0200364	-0.00275398	-0.0118411	-0.00477198	0.000488232	0.00232423	0.00939778	0.0116504	0.0055135	0.00726437	0.00262098	-0.000207962	-0.0093273	-0.00913222	-0.0194843	0.00895897	-0.011821	0.00929588	0.0202742	-0.00128569	0.00454086	0.00217955	0.016779	-0.00765254	0.00159237	0.0105844	-0.00448045	0.00687258	0.0163981	0.0162639	0.00168142	0.0101804	-0.0109103	-0.00124629	-0.000437876	0.0215112	0.00711501	-0.0290113	-0.0260178	0.00245392	0.018199	0.0173755	-0.00741794	0.0111073	-0.000661134	-0.000337643	0.00745071	0.0113632	-0.00240981	-0.00620633	0.0141043	0.00369593	0.00506535	0.00234639	-0.000303383	0.0222105
0.00384218	0.004289	-0.00245556	-0.00200202	-0.00050144	0.00449105	0.00109174	-0.000644068	-0.00639347	-0.000880002	0.000783856	0.00626994	0.0041527	-0.00220289	-0.00199164	-0.00219685	-0.00409165	-0.00494746	-0.00394786	-0.00562539	0.00338146	0.000383749	-0.00621798	-0.00351762	-0.00165115	-0.00503372	-0.00353754	-0.00654025	0.00186291	0.000322906	0.000873856	-0.00545081	0.000956197	-0.00544378	-0.00266973	0.00444758	-0.00805889	-0.00684293	-0.00111009	0.00131586	-0.000661949	0.00473399	0.00384883	-0.00479165	-0.00101201	0.003367	0.00132025	-0.0043022	0.00241248	0.00245305	0.000735122	-7.95493e-06	0.000847268	-0.00512204	-0.00726862	0.00686931	-0.000143353	0.000877112	-0.00025951	0.00374871	-0.00602366	-0.00170252	-0.00198365	0.00384428	0.00353312	-0.00673033	0.000458891	-0.00330803	-0.00531991	0.00528532	0.00138706	0.00383559	0.00287024	0.00160444	-0.0019065	0.000791017	0.00219494	0.00345039	-0.00276759	0.000716958	-0.00409364	-0.00615657	-0.00636959	-0.00298672	6.40734e-05	0.00119999	0.00414529	-0.005914	-9.71881e-06	0.00140416	0.00512639	-6.83754e-05	-0.000630448	-0.00184463	0.0040343	-0.00272243	0.00811967	-0.0068735	0.00297798	-0.00392024
-0.0237694	0.00710807	-0.00683402	-0.00141725	0.00140615	0.00551742	0.000732621	0.00219472	0.0113698	-0.00352751	0.00255736	-0.000932493	-0.00193093	-0.00304277	-0.00490518	-0.00538169	0.00537797	0.0151349	-0.00867363	0.00462567	0.0134457	-0.00450258	0.00884008	0.0022599	-0.0143326	-0.00149886	0.00693581	0.0078035	-0.00182129	0.00148979	0.0053341	0.0010422	-0.00650492	-0.00139813	-0.0109453	-0.0156961	0.00977738	3.91155e-05	0.0073408	0.0140083	0.00338071	-0.0142486	-0.0174125	-0.000202247	0.00193102	-0.0139452	-0.00923208	-0.00915068	-0.00836191	-0.000774439	-0.00246606	-0.0091614	-0.00201237	-0.0019958	-0.000510265	0.00672447	-0.00353469	0.00261722	0.00133589	-0.000546995	0.0015009	0.00402854	-0.0221765	-0.00092233	-0.00439011	0.00572704	0.0033089	0.00965797	0.0134333	0.0103191	-0.00506623	-0.0191054	0.00279548	0.00748543	-0.00907232	-0.00163346	0.00444349	0.00193161	-0.00925682	0.00435627	0.005367	-0.000569781	0.0029547	0.00970988	0.00558416	-0.00453167	0.00800709	0.00796675	0.0165515	0.0042687	0.00200169	-0.0208874	0.00568219	0.00429828	0.00174094	-0.00902092	-0.00320043	-0.00344432	-0.0119542	-0.00181109
-0.00233156	0.004304	0.0039726	-0.0030468	-0.00193425	-0.00347036	-0.00962806	-0.0110939	0.00400643	-0.0104941	0.00307652	-0.00326599	-0.0012836	0.000619247	0.011602	0.00500752	0.00192697	0.00351342	-0.00309033	-0.00688789	-0.0101498	0.00396076	0.000641952	-0.00275373	-0.00484536	0.00076153	0.0129078	0.00353732	-0.00467026	0.00784084	0.00427861	0.00248381	8.47907e-05	0.000392738	0.0161883	-0.0140146	-0.00394278	-0.00337783	0.0100142	0.00208006	0.00201377	0.00115664	0.000917915	-0.00325893	0.00505694	-0.00994469	0.00909076	0.00194381	-0.00412033	0.00518727	0.0040562	-0.000250179	0.00465485	-0.00177648	0.00280146	0.00451065	0.0122291	-0.00118865	0.00233223	-0.00784619	-0.00131675	0.00253136	-0.0134633	0.000598894	-0.00942712	-0.00719692	-0.00847676	0.00619954	0.0085675	-0.00818127	0.00151071	0.00054821	-0.00179678	0.00445876	0.00546358	0.00234653	-0.00606226	0.00409805	0.00385459	0.000689264	0.000452742	0.00667839	0.00791389	0.00150949	-0.00130285	0.00525493	0.00533587	-0.0038354	-0.00396491	0.00475928	0.00133268	0.00848822	-0.000974732	-0.000997478	0.00377873	0.00195491	-0.00415265	-0.00246815	-0.00861233	-0.000651218
-0.0103359	0.00693258	0.00115014	0.0143973	0.0109172	0.00288218	-0.0131915	0.00752262	0.0013853	0.00705882	-0.000472921	-0.00704252	0.00476085	0.013751	-0.00184706	0.00640641	-0.006785	-0.00344314	0.00683466	-0.00322763	0.00156064	-0.0128922	0.0121295	-0.00524362	-0.00128954	0.00560894	-0.00332367	0.0116678	-0.00353053	0.0140828	0.00441868	-0.0107169	0.000768955	-0.0025572	0.00873374	-0.0170009	-0.0112189	0.00272465	-0.0054878	-0.00305302	0.00358444	0.0142391	-0.00230118	-0.000569017	0.00594688	0.0109986	0.00219709	0.0112838	-0.00678608	0.000502074	-0.00268444	0.0146453	0.00600865	-0.000177037	-0.000453861	-0.0186829	-0.00182864	-0.0071806	0.0032108	-0.0122071	0.006853	0.00421981	-0.00742557	0.0111353	-0.0155083	-0.00962439	0.000986245	-0.00834898	0.00908681	-0.0179527	-0.00869794	-0.00156713	0.00177722	0.00428996	-0.00290127	0.00311825	-0.00325223	-0.0032906	-0.000658626	-0.0116005	-0.0186357	-0.0151606	0.0117581	0.00591678	0.00354041	-0.00897862	0.0101912	0.00269812	-0.00400809	-0.0110353	-0.00842979	0.00298742	-0.00652412	0.00292322	0.00388788	0.0046774	-0.00483192	-0.0141992	0.00380608	-0.00617481
-0.0100582	-0.00456105	0.00623958	0.00805906	0.00173671	-0.00360815	0.000365236	-0.00265211	0.00162581	-0.00751362	0.00833119	0.00127609	0.00105096	-0.0101066	0.00638627	-0.00409962	0.0111881	0.0116158	0.00602657	-0.0137259	-0.0001488	0.00243606	0.0114371	0.008666	0.00236284	0.0196033	0.000200584	0.0121951	-0.00784889	-0.00109044	-0.00264328	-0.0126958	-0.00387351	-0.00156175	-0.000994065	-0.00255229	0.00224291	0.00134829	0.00373327	0.00452805	-0.000729609	-0.00707478	-0.00592387	0.000387361	-0.0033826	-0.000415091	-0.00750671	0.00887041	-0.00932494	-0.00604374	-0.00351067	-0.00182785	0.00211396	0.000122421	0.00317858	-0.00442302	0.009227	-0.0040849	0.00272595	0.00430781	0.00090588	0.0137089	-0.00247954	0.00457715	-0.00412529	0.00773059	-0.00902057	0.00187461	0.0124122	-0.00222575	-0.00653526	-0.0167077	0.0014506	-0.00563234	-0.00910259	-0.00129662	0.00291079	0.00375769	-0.00591499	0.000402399	-0.00426059	0.00448167	-0.00190201	-0.00536773	-0.00637093	0.00395918	4.45117e-06	0.00765882	-0.00531706	0.00226617	-0.0060631	-0.00141971	-0.000845385	0.00719763	-0.00315053	-0.00291037	-0.00195093	-0.00622056	-0.00942772	0.00292641
-0.00670896	0.00839788	-0.00662794	0.00803937	-0.00560307	-0.00679125	0.0238096	0.00503276	-0.00107324	0.0112953	0.000775839	-0.0108952	0.0011317	-0.00968665	-0.00149118	0.0169771	0.00527424	0.00144086	0.00143453	-0.013629	-0.00367749	-0.0175203	0.00274591	0.000514229	0.00865209	0.0109685	-0.00387513	0.00399028	-0.00975427	-0.022765	-0.000429395	0.00314485	0.00488672	0.00561607	0.00343278	-0.000869058	0.0112485	-0.0131573	-0.00913922	-0.00577099	0.00113786	-0.00181135	0.00996858	0.0139745	-0.00132402	0.0036751	-0.00461611	0.0079816	0.00661337	-0.00338172	0.00754258	0.00277807	0.0113327	0.0112723	0.0101349	0.0120286	0.0104676	0.00108861	0.00346561	0.00335188	-0.00793078	0.00253056	-0.0138386	0.0121765	-0.00122723	0.00455418	-0.00692487	-0.00655325	0.00443204	0.000147859	-0.000990629	-0.00626845	0.00651032	-0.000406371	0.00364059	0.00241385	0.00715976	0.0055952	-0.000405191	0.00297903	0.0111022	0.0063537	0.00872122	-0.00941924	-0.00356548	0.000627172	0.00661017	0.0125388	0.00145676	0.00654387	0.00516879	-0.00766826	0.00306679	0.00299854	2.61415e-05	-0.0112504	0.0142181	0.00416798	1.16375e-05	0.00112119
-0.00546547	0.00198899	-0.00436002	0.000766263	-0.000418033	0.00158302	-0.00456358	0.00408307	0.0106364	0.0029109	0.00586229	-0.00354044	-0.00293668	-2.53763e-05	0.00137236	0.00177464	-0.0013838	-0.00164059	0.00630215	-0.00017644	-0.00289334	0.00293138	0.00845776	0.00100631	-0.0041094	0.00199237	-0.00341445	0.00154637	-0.000683936	-0.00297593	0.0014376	0.00291533	0.00536093	0.00253184	-0.000767089	-0.00367286	-0.00117063	0.00369637	0.00618913	-0.000222142	-0.000737191	-0.00207406	-0.00397803	0.00558628	-0.000527958	5.91434e-05	0.00486116	-0.000120528	-0.00570198	-0.00816799	-0.00370926	0.00438753	-0.00589083	0.00291707	-0.00228024	0.000611855	-0.00139294	-0.00458107	0.00413768	0.00350882	0.00174649	0.00343526	0.00169541	-0.00975227	-0.00158714	-0.000790321	-3.68267e-06	-0.00578028	0.00200391	-0.00230635	-0.00142764	0.000148833	-2.42807e-05	0.000959538	-0.00137445	0.0033704	-0.00417358	-0.00635177	-0.00324611	0.00125241	-0.00401651	-0.0030359	0.0113025	0.00115845	0.00440585	-0.00468075	-0.00322273	0.00619758	0.00112069	-0.00142456	0.00365535	-0.00244125	-0.00878395	-0.000731496	-0.00343983	0.0075605	0.00164557	-0.00561144	-0.000804846	-0.00358813
0.00133362	0.00509284	0.00370511	-0.000405224	0.0026382	0.0101311	-0.0107536	-0.00277523	-0.00085851	0.00231011	-0.00430779	-0.00494468	-0.000518002	0.003452	-0.00299039	0.00593565	0.000201138	0.00580252	0.00239983	0.00122437	0.000818323	-0.00265761	-8.39721e-05	0.000188739	0.00170752	-0.00180452	-0.0016469	0.000827427	0.0058874	-0.00232758	0.000984338	0.00841409	-0.00455929	0.0047762	0.00803701	-0.000354134	-0.00187998	-0.00775786	0.0052409	0.00158401	-0.00104489	0.00110445	0.00512107	0.00145562	-0.00107938	-0.00494821	-0.00562385	-0.00412243	-0.000171919	-0.00588103	0.00101801	-0.000755399	-0.00197624	0.0058791	0.00302072	-0.00039503	0.00207701	-0.00481635	-0.00553501	0.00363041	-0.00383431	0.00518087	-0.00794744	0.00518404	-0.00707107	-0.00665185	-0.0023085	0.00765791	-0.00764749	-0.00590271	0.00166514	-0.0122673	0.00347754	-0.00655165	0.00406189	-0.00327279	0.00859981	0.00383803	0.000514808	0.00152484	-0.00145733	-0.0109637	-0.000277977	0.00147112	-0.00246851	-0.00726747	-0.00456567	0.00256341	-0.00345966	-0.00766953	-0.00810322	-0.0036958	0.00552932	0.000495869	0.000873494	-0.00383971	-0.00250974	0.00257747	0.00086272	0.0102522
-0.00842251	-0.0122025	0.00852414	-0.00240504	-0.00936657	-0.00215334	0.0131295	-0.00997344	0.0146216	0.00542624	-0.00487512	0.000783784	0.0142818	0.000300127	-0.0156276	-0.00250508	0.0149589	0.00512655	0.00175912	0.000732944	0.000870407	0.00241455	0.019726	0.0157326	-0.00184492	0.0349043	-0.00238129	0.00454096	-0.00560803	-0.0130075	-0.00809753	-0.00324051	0.00760787	0.00274713	-0.00709492	0.00273099	-0.0104247	0.00679028	0.0124758	0.0158799	0.00179969	-0.0109442	0.00925193	-0.00588835	-0.000775808	-0.0167595	-0.00591372	-0.00429298	-0.0140453	-0.00401552	0.00363495	-0.00879083	-0.00336197	-0.000597368	0.00094413	-0.0113026	-0.00190714	-0.0103805	0.00447645	0.0176698	-0.00448457	0.00998628	0.00978038	0.0114779	-0.0125897	0.012741	0.00155029	0.00284062	0.0197741	0.00546688	0.00179425	-0.019331	-0.00315647	-0.0171159	0.00533755	0.00874746	-0.0128304	-0.00468651	-0.0243395	-0.00980395	0.00277121	0.00926447	0.00961269	0.00740751	-0.00962177	0.00159599	-0.00347083	0.00357522	-0.0145774	0.00168727	0.0047845	0.00392741	0.00999822	0.0110858	-0.00175084	0.00299937	0.017495	-0.00298393	0.00901266	0.00547357
0.00464162	-0.00934592	0.00104645	0.00648417	-0.0130783	0.00136444	-0.013184	-0.00269454	-0.00773344	-0.0180721	-9.70329e-05	-0.000534579	-0.00998126	0.000790077	-0.00398855	0.00940418	0.0159289	0.00941752	0.00209029	0.00658014	-0.0216691	-0.00172073	0.00614587	0.0100297	-0.00355091	0.00449525	-0.000509487	-0.00152705	-0.00673983	-0.0097627	0.00751127	-0.00221069	-0.0104562	0.0143449	0.0185838	-0.0154811	-0.00434066	-0.00915351	0.00903156	0.000231005	0.00934028	0.00193336	0.00223019	-0.00065797	0.00764975	-0.006939	0.0046325	-0.0013628	-0.00773452	0.00881365	0.00932296	-0.000507968	-0.00666675	-0.00380762	-0.00173013	0.000604873	0.0121089	-0.00232225	0.0110453	0.00102481	-0.0092884	0.00512919	-0.0130877	0.00116126	-0.0103595	-0.00330364	0.000923542	0.00057385	0.0104459	3.91191e-05	-0.00250751	-0.00208561	-0.0146814	0.00505615	0.00634711	-0.00358976	-0.00456526	0.00741408	-0.00634272	0.00493665	-0.00376137	-0.00246217	0.00310543	0.0041774	-0.000877894	-0.00218768	-0.0105237	0.00439087	-0.00883376	-0.00900721	0.00805643	0.00202433	0.00424098	-0.00869301	-0.00271442	0.00429968	-0.00386412	0.00225503	0.00335913	0.011197
-0.00992633	-0.000364338	-0.000621154	0.00442549	-0.0090364	-4.37176e-05	-0.0134304	0.00652601	0.00098094	-0.0173639	-0.00634322	0.000570478	-0.012203	-0.0132031	0.0141122	0.00796797	0.00503347	0.0067563	0.00832271	0.00591639	-0.0099819	-0.0186722	-0.00553861	-0.0124803	-0.00501947	0.000389846	0.0193453	0.0242284	0.00115956	0.00882772	-0.00660708	0.0111226	-0.0133095	-0.0213843	0.0123743	-0.0254956	0.015263	-0.00411054	0.00591239	0.00906892	0.0111642	0.00360877	-0.0217244	-0.008887	0.00261727	-0.0115533	0.00432787	-0.0077255	-0.00559187	0.00951315	-0.00134877	0.0104425	-4.32139e-05	0.00831405	0.00757709	-0.00256539	0.0103639	-0.00280526	-0.00277033	-0.00823119	0.00404635	-0.0126693	-0.0282988	0.0123231	-0.0159775	-0.00321974	-0.0206376	-0.00695689	-0.00458136	-0.0144883	0.00151842	-0.0184781	0.00902056	0.00463063	-0.00859258	0.0170728	-0.00279486	0.0106234	0.0241714	-0.00202836	0.00256594	-0.00159259	0.00703211	0.00700518	0.00661712	-0.0158036	0.010602	0.0224953	0.00484599	-0.00909181	0.00220684	0.0016903	-0.00434432	0.00763512	-0.00783839	0.00937201	-0.0151259	0.00264527	0.00748867	-0.01169
-1.10821e-05	0.00388752	0.00295633	0.00324234	0.00459423	-0.0115527	-0.00922015	0.0180649	0.0178504	0.0132144	-0.00195831	-0.012712	-0.0167816	0.00658953	0.00209822	-0.00455296	-0.0249142	-3.57099e-05	0.0122414	-0.000272143	0.0218627	0.00359131	0.00730615	-0.00938403	-0.00200621	0.00011329	-0.0084097	0.00916348	0.00953356	0.0178323	-0.0111407	0.00481351	-0.01317	-0.00344137	-0.00262319	0.00831226	0.0128253	0.00651949	-0.0095844	0.00909622	-0.00425511	-0.00532002	-0.00593473	-0.00848775	0.0128864	-0.0054195	-0.00392072	0.0142299	-0.0133176	0.000940496	-0.0120531	0.00629227	-0.0106757	-0.0134532	0.00727644	-0.014792	-0.0123582	-0.0199146	0.00372657	-0.0362982	0.00881127	0.0025644	-0.00277615	0.000894971	-0.00692154	-0.00450243	-0.00472613	0.00796034	0.00138916	-0.00628995	-0.021358	-0.0225461	0.00307891	0.00160327	0.026595	0.00807903	-0.0144378	0.00543462	0.00691552	-0.00666227	0.000844064	-0.0143127	0.00528119	0.0222981	0.0127758	0.00713554	-0.00494659	0.00114256	0.00568875	-0.0163159	-0.00594804	0.0110343	0.0247457	0.0111586	-0.0101004	0.00532607	0.00610266	-0.00690431	0.00200586	0.0122381
0.00500579	-0.000466258	0.00817702	0.00273442	0.00382704	-0.00249814	-0.00323483	0.000668592	0.00396301	0.00204969	-0.000251807	0.00433823	7.15793e-05	-0.00624181	0.00467105	-0.00226868	-0.00238464	0.000808757	0.00878721	-0.00568227	-0.00335854	0.00100302	0.00238512	-0.00165998	-0.00146201	0.00192426	0.00092475	0.00798351	-0.0015217	0.00613677	-0.00462816	0.00547636	-0.00546974	0.000340604	-0.00133681	-0.00480863	0.00890732	0.00256709	0.00780603	-0.00981791	-0.00407833	0.00095655	0.00485715	0.00969506	0.0013754	0.00359013	0.00325361	0.00254169	-0.00471428	-0.0020925	0.00732111	-0.000170973	0.00401059	0.00793028	0.00229477	-0.00185767	-0.00170071	-0.00310676	0.00180583	0.00528736	-0.00386413	-0.0069452	-0.00450577	-0.00204492	0.000157341	0.00405752	0.005446	0.00483603	0.00139994	-0.00156125	0.000227745	0.00182872	0.00106227	-0.0143308	0.00303948	0.000729019	0.00567888	-0.00113416	0.00223486	0.00148403	0.00833743	0.00397454	0.00385691	0.00712517	-0.00620457	-0.00220523	-0.00293859	0.00484938	-0.000583699	0.000618402	0.00131524	0.00253229	0.000875638	-0.000225792	0.0016296	-0.00376278	0.00621678	-0.0012979	0.00351332	-0.00211467
-0.00307999	-0.00154409	-0.00865225	0.0148808	0.0163	-0.000329255	0.0115042	0.00403308	0.00940671	0.00992718	0.0037978	0.000994247	-0.00401254	-0.00619503	0.0059538	-0.0144522	-0.0102972	-0.00565219	0.0113142	0.022668	-0.00355476	-0.00322016	0.00315327	0.00141859	0.00623708	-0.00756803	0.0122958	0.0101123	0.0029922	-0.00496815	0.0128942	6.51998e-05	0.00125451	-5.34366e-05	0.0111661	-0.00960859	0.0155025	-0.00305561	0.0206302	-0.0161979	-0.0145045	0.000324457	-0.0128835	0.0126245	0.0114999	-0.00455145	-0.00652808	0.00829056	0.00515119	-0.0051352	-0.00480947	0.00553092	0.00453982	-0.00631396	0.0125083	-0.000890911	-0.000983554	0.0123807	0.00972344	0.0114481	0.00925532	0.0218742	-0.000658939	-0.00213708	-0.00737184	-0.00455961	-0.0118773	-0.00480132	-0.00139788	-0.00614246	0.0183055	0.00346076	0.00874546	0.00393173	-0.00658911	0.0090325	0.00547468	-0.00863759	-0.00368435	0.00660865	-0.0186497	-0.0153393	0.00973684	-0.00627587	0.0312276	-0.000830336	-0.00651708	0.00622132	0.0154432	-0.00735111	9.18945e-05	-0.00923376	-0.0121898	0.00925036	-0.00566206	0.00966247	-0.00843502	-0.00226861	0.0174535	0.000619702
-0.00246508	-0.0208396	0.0208292	0.00567983	0.00588576	0.0110304	0.000454103	-0.000817717	0.00468061	-0.00277621	-0.0158219	0.00404697	-0.00568037	0.0100192	-0.00527639	-0.00635784	-0.00530197	-0.0111457	-0.00138819	-0.0166381	0.0172621	0.00809363	0.00558899	0.00086465	0.0127862	-0.000170079	0.0185705	0.0108035	0.00824561	-0.00433448	-0.010573	0.0103858	0.00266705	0.017126	-0.0185833	-0.00501971	0.00266445	0.000398953	0.00429081	-0.0104413	-0.00190248	0.00105651	-0.00120788	0.0153526	-0.00904827	0.0133876	0.0146864	-0.0153913	0.0109103	0.00700188	-0.0108004	0.00615041	0.0288104	0.00355393	0.00229181	0.014854	0.01024	0.0144464	0.0107305	-0.00264808	0.00752856	-0.00921728	-0.0224903	-0.00669915	0.00265304	0.0199591	-0.0248571	-0.0114143	0.0172511	-0.0161732	0.0128009	-0.0103127	-0.0102151	-0.00594853	-0.00226382	0.0237815	-0.0228621	-0.000502327	0.000906172	-0.0139254	-0.000718965	0.00782313	-0.0100539	0.0065095	-0.0235435	0.00580235	0.00225858	0.0183401	-0.0138943	-0.00340812	0.00459598	0.0149587	0.00160366	0.00902333	-0.00398866	-0.0128643	0.0133326	0.0277586	-0.00283246	-0.0148357
-0.00441407	0.00397264	0.00476518	-0.0121371	0.0102262	0.00364418	0.00214547	-0.0057606	0.00106573	0.00631019	0.00998847	-0.00420091	-0.007769	-0.00397152	-0.00256568	0.00141829	-0.00698057	0.00528094	0.0100952	-0.00480192	0.0124585	-0.00498077	0.00216386	0.00380582	-0.00636611	-0.000654621	0.00416105	-0.00974037	-0.00862939	-0.00490587	-0.00251123	0.00525866	-0.00556018	-0.00791882	-0.00569703	-0.00710941	0.0176145	0.000980892	0.000752822	-0.00776301	-0.0143187	-0.000135385	0.00645096	0.00719821	-0.00129734	-0.0110477	-0.00392224	0.00687555	0.000327844	-0.00972531	-0.000694171	-0.0143168	0.00239188	0.00209404	-0.00987468	-0.00157654	-0.000175244	-0.00157437	0.00197265	0.00623853	0.00697262	0.00127669	0.00561503	-0.00161651	0.00098782	0.00409539	0.00173537	0.00183465	-0.0102818	0.00555447	0.00233419	-0.0119815	0.00077648	-0.000917019	0.00801494	0.0120854	0.0120015	0.00342081	-0.00242787	0.00855844	-0.00028667	-0.00771909	-0.000969259	0.00444789	0.0121192	-0.00584524	0.00230181	0.00836134	0.000803334	0.0130334	0.0108016	0.00310657	-0.00337902	0.00217458	0.00229014	0.000677186	0.00087558	-0.00655318	0.00245839	0.0111812
-0.00460202	0.00438379	0.0015925	0.00229598	0.00745841	-0.00179096	0.00713047	-0.0076609	0.0052849	0.00316354	-0.00622483	-0.00129564	-0.00399201	-0.00216285	-0.00243613	-0.00637805	-0.00586234	-0.00164464	-0.0035186	0.00321012	0.000781378	0.00284168	0.00601868	-0.00442835	0.00214782	0.00158065	0.00176971	0.00983323	0.00595448	0.00109209	0.00790704	0.00157505	0.00118873	0.00098076	0.000923038	-0.00338623	-0.0048088	0.00799295	0.00032823	-0.000777323	-0.000354759	-0.00490431	-0.00340693	0.000976538	-0.00185745	0.00287247	0.00576814	-0.0041517	-0.00329701	0.00333745	0.000595595	0.00358739	-0.00156103	-0.00303855	-0.00773934	-0.000640432	-0.00370677	-0.00167321	-0.00418462	-0.00323616	0.00558545	0.000984885	0.00428787	-0.00332071	-0.00756485	-0.00743381	-0.010682	-0.00703432	-0.000769849	-0.00587623	0.0051935	-0.00416447	0.000858292	0.00431982	-0.00552621	-0.00259869	-0.00111385	0.00561087	0.00130653	0.000745207	-0.00854138	0.00466078	0.0110687	-0.00472566	0.00668386	-0.00153	0.0016445	0.00382463	0.000133498	-0.000210308	-0.000129638	-0.010179	-0.00335951	-0.00513304	-0.00526951	0.0015745	0.00287345	0.00400102	-0.00088054	-0.00306385
-0.00382839	-0.010889	0.00515574	0.000563321	-0.00413731	0.0122588	-0.0141442	0.00287115	-0.00740158	-0.0125474	0.00731284	0.00471968	-0.00836175	-0.00410778	0.00191004	0.00991595	0.00745614	0.00786167	0.00956232	0.00480008	-0.016285	-0.0131104	0.00811618	0.00376574	-0.000211793	0.0072826	0.00573753	0.00448396	0.00158323	0.00684719	0.00781195	-0.00458992	-0.0105466	-0.000341053	0.00987422	-0.0167456	-0.000829943	-0.00300955	0.000818537	-0.00383666	0.00576846	0.0046635	-0.0045686	0.00385328	0.00467473	-0.00728861	0.0013142	2.22312e-05	-0.00937791	0.0038657	0.0113306	0.000434366	7.05109e-05	0.0023955	-0.00295248	-0.00241294	0.00456233	-0.000419476	-0.0090717	0.0116806	-0.00713546	-0.000142172	-0.00494392	0.00550735	-0.00510205	0.000766485	-0.000433284	-0.00657171	0.00405803	-0.00801932	0.0024932	-0.0106424	-0.00197613	-0.00218378	-0.0158873	-0.000785824	0.00100019	3.76469e-05	-0.00172566	0.011748	0.00302967	-0.0029307	0.0031846	0.00156561	0.00121701	-0.00861164	-0.00570207	0.00542003	-0.00722041	-0.00658517	0.000122254	-0.003047	0.0012687	0.0028154	-0.00171161	0.00495658	-0.00622952	-0.00135567	0.00386729	-0.00395907
-0.0154369	-0.00389729	0.000330669	0.00346201	-0.00470575	0.00194256	-0.00022006	0.00917322	0.00954216	-0.00929793	0.00136392	-0.00177421	-0.00110505	0.0139327	0.00184626	-0.00163634	0.00139781	0.0116812	-0.00634407	0.00464681	-0.00312869	-0.0134852	0.00802706	0.0059027	-0.0137949	-0.00681573	0.0024109	0.00329935	-0.00690874	-0.0197148	0.000733795	-0.0129776	0.00235073	-0.00134109	-0.00836935	-0.00401647	0.0121043	0.00326865	-0.00117373	-0.013386	0.0151957	0.00304338	-0.00772845	0.0167084	-0.00555209	-0.00133574	-0.00174694	0.00615336	-0.00129846	0.00823481	0.00593603	0.00165484	0.00208936	-0.00461207	-0.00162936	-0.00172361	-0.00272211	-0.00747234	-0.0028486	0.0116472	0.00768015	-0.00894903	-0.00107158	0.011589	0.00647222	-0.0129213	-0.0036243	-0.0112799	0.00705956	0.00555538	-0.0155071	0.00196955	-0.00352807	-0.0154127	0.00534144	0.00830115	-0.00365865	7.88135e-05	8.56047e-05	-0.00411073	0.00956342	0.00886121	-0.00187505	0.00850772	-0.00188994	-0.00046412	-0.0020681	0.0167241	0.0035829	0.00456512	-0.00151687	0.00960576	0.00157497	0.00513212	-0.00223913	-0.00788314	0.00995381	0.00233526	0.00809732	0.0041939
-0.0115722	0.00750925	0.0354363	0.00493362	-0.00335328	-0.0107137	0.0166607	0.0123019	-0.00656048	0.0121532	-0.00117426	-0.0111935	-0.00824442	0.0193272	-0.0157759	0.0198089	0.0189865	0.0242966	-0.00372577	0.022148	-0.0154086	-0.032673	0.00652015	0.0111698	0.0113914	0.0177397	-0.0156419	-0.00990648	-0.0188127	-0.0123922	-0.00419016	0.000542694	0.0110118	-0.000219995	0.00354467	-0.0105033	0.00209297	-0.00282361	-0.00166033	-0.0136855	0.00264049	0.0227554	0.00054326	-0.00349683	0.0110678	-0.0247195	0.0120538	0.00973493	0.00955531	-0.00487722	-0.0121577	-0.00385736	-0.0181684	0.0371065	0.0105947	-0.00279689	0.00810756	-0.0267814	0.0010587	0.022982	0.000305843	8.16769e-05	0.00212713	0.00239693	-0.00390677	0.00644037	0.0157652	0.00164382	0.00807271	0.00642456	-0.0102363	-0.0156321	0.0190731	0.0101008	-0.0133211	-0.00627551	-0.00204611	-0.00052189	0.00230421	0.00943644	0.0294652	-0.00357841	0.000611904	-0.0114524	0.0181629	-0.00827048	-0.0176139	0.00649701	-0.0272566	0.00306257	-0.00250421	-0.00595806	-0.00270615	0.019755	-0.0173061	-0.00951143	-0.00547586	-0.00509442	-0.0147536	0.0159449
0.00391588	0.0105405	0.00418106	0.0013008	0.00994569	0.0066825	0.00867819	-0.00753859	-0.000264727	0.00132133	0.00185838	-0.00877512	0.00712826	-0.001592	-0.00619382	0.00265241	0.000732783	0.00896191	-0.00057187	-0.0166884	0.00264991	-0.00930135	-0.00281178	0.00540095	0.00212115	0.0161423	-0.00064836	0.00913017	0.00419109	-0.00873127	-0.00397732	0.0131959	-0.00122678	-0.000323192	0.00544842	-0.00157616	-0.00633883	-0.00726816	0.00540508	-0.00291379	0.00503058	-0.00231706	0.00248562	-0.00112048	-0.00608567	-0.00144918	0.00435405	0.00139251	0.00118776	-0.00592588	-0.00726893	0.00601902	0.00514928	0.00953345	0.00313286	-0.00221022	0.00540392	-0.00628535	-0.00758053	0.0163548	-0.00070215	0.00520711	0.00167306	0.00941124	0.0042238	-0.00308372	-0.00283997	0.00298317	0.00348307	-0.00320624	0.00842272	-0.00906784	0.0128921	0.00656526	0.00638914	0.00147484	0.00210721	-0.00569971	-0.00494755	-0.001431	0.00351639	-0.00335128	0.00329855	0.00892259	-0.00630057	0.00942069	-0.000402094	-0.00447959	-0.012134	-0.000535304	0.0108585	-0.0126437	5.27733e-05	0.00733666	-0.0111965	-0.00763262	0.00494479	-0.00343509	-0.0065007	0.0107957
